svm_type c_svc
kernel_type rbf
gamma 0.00012207
nr_class 34
total_sv 1134
rho 0.120228 0.173653 0.242159 0.243286 0.146511 0.435513 -0.135249 0.359094 -0.000474529 0.683727 0.11102 0.102012 0.505234 0.108769 -0.0691668 0.131604 0.755232 0.599847 0.235358 0.219385 0.22682 -0.457848 0.576206 0.188981 0.339973 0.115731 0.143169 0.139055 -0.125799 0.154223 0.116398 0.319755 -0.503816 0.0365294 0.0953164 0.138512 0.00682917 0.169104 -0.211831 0.186102 -0.69386 0.842817 -0.0738141 0.513541 0.407407 -0.0327355 -0.57293 -0.0951412 0.0932538 0.193373 0.0911873 0.124547 0.0542909 -0.382228 0.230337 0.0267907 0.0986861 0.328873 -0.00971641 0.0267563 -0.482843 0.0297487 -0.174014 0.121656 -0.623126 0.0299011 0.285052 -0.144882 -0.209 -0.192991 0.0741272 -0.0912674 0.0635863 -0.132744 0.016347 0.113774 -0.432847 -0.146699 -0.0258119 -0.0260535 0.103405 0.00410774 0.0625559 -0.347664 -0.186838 0.10366 -0.0903146 -0.118763 -0.00887767 -0.702498 -0.624578 -0.164607 -0.121267 -0.0388302 -0.0276248 -0.298879 0.0657954 -0.157955 0.184169 -0.200277 0.0681393 -0.167449 0.0663702 -0.15741 -0.0306576 0.0680922 -0.191364 -0.11848 -0.0597123 0.030049 0.0560848 -0.0202101 0.0373718 -0.160005 -0.257551 0.0999902 -0.0791505 -0.0541648 -0.0536035 -0.201413 -0.194232 -0.238739 -0.173778 -0.0962713 -0.0515437 -0.354835 -0.324244 -0.469958 -0.351896 -0.00524295 -0.173346 0.0969478 -0.202103 -0.0870892 6.56037e-05 -0.954066 -0.27627 -0.110223 -0.677006 0.00641348 -0.0677296 -0.0182008 -0.633645 -0.286428 -0.0595108 -0.206329 -0.292983 -0.0880466 -0.973486 -1.26913 -0.203948 -0.150109 -0.101485 -0.089343 -0.427527 0.43001 -0.225647 1.37567 -0.0733562 0.317381 -0.0368183 0.111311 0.421826 -0.0190493 -0.151211 0.00548331 0.390273 0.291816 0.113428 0.140044 0.142425 -0.25783 0.47359 0.0591128 0.211037 0.0881371 0.0920439 0.0964704 -0.174421 0.0376245 0.0759734 0.148105 -0.384913 -0.449928 -0.0198305 -0.369179 0.106249 -0.266713 -0.110829 0.0907132 -0.447301 -0.372221 0.0129956 0.0114839 -0.0143321 -0.0808563 0.0917985 -0.157708 -0.414197 -0.0648539 -0.460883 -0.207172 -0.0445284 0.0862188 -0.269064 -0.362849 -0.370313 -0.163594 -0.0318716 -0.438862 0.551146 0.0201823 0.578965 0.0260404 0.241518 0.550866 0.121162 -0.0287751 0.188204 0.653839 0.657342 0.246305 0.261118 0.267811 -0.36892 0.718302 0.218012 0.438892 0.359685 0.152647 0.199367 -0.120843 0.159382 0.178411 0.324833 -0.343419 -0.227756 0.136389 -0.195711 -0.0908524 -0.0146758 -0.293162 -0.396063 -0.177567 -0.106126 -0.0706645 -0.0890596 -0.0468952 -0.173431 -0.466865 -0.0649625 -0.280268 -0.288032 -0.149238 -0.20835 -0.189983 -0.409175 -0.16515 -0.163646 -0.124571 -0.535917 0.854697 0.00817842 0.285388 0.483718 0.00550778 -0.236597 0.163476 0.16229 0.369236 0.303832 0.130131 0.120843 -0.12227 0.281562 0.0575658 0.145762 0.215618 0.0544009 0.0459159 -0.246135 0.144013 0.186886 0.423911 -0.60473 -0.301921 -0.32733 0.0239142 -0.282769 -0.948951 -0.545619 -0.242907 -1.78462 -0.0519571 -0.0802826 -0.142899 -0.927373 0.104189 -0.257956 -0.155754 -1.00934 -0.195198 -0.134928 -1.17734 -0.229885 -1.4908 -0.302607 -0.915198 0.0774454 0.205603 0.0714499 -0.0581972 0.0826019 0.330271 0.411982 0.128406 0.327185 0.119452 -0.0610332 0.419756 0.0655739 0.188976 0.120157 0.0260432 0.0765267 -0.111918 0.022165 0.0528672 0.0977162 -0.343525 0.122432 -0.0904229 -0.32764 -0.0665847 0.00294247 -0.0610855 0.0456668 0.0759778 0.00102337 -0.241224 0.100425 -0.0353201 -0.0100423 0.00528806 -0.0528358 -0.0170103 -0.434474 -0.0284041 -0.22451 -0.00863432 -1.27273 -0.235105 -0.522979 -0.308023 -0.0892758 -0.262737 -0.276566 0.0168027 -0.110733 -0.668216 0.115315 -0.353841 -0.100918 -0.225831 -0.179232 -0.15219 -0.880652 -0.124707 -0.42053 -0.347664 -0.517966 -0.0594754 0.110085 1.1242 0.480514 0.174627 0.24968 0.52845 -0.0836958 0.410719 0.0669972 0.235843 0.0885749 0.422785 0.308014 -0.100957 0.0987283 0.109865 0.137396 -0.326977 0.197146 0.630564 1.01846 0.259812 0.213839 0.206319 -0.13799 0.386072 0.173499 0.188531 0.558835 0.0954717 0.13713 -0.184988 0.0944675 0.35131 0.347518 -0.465447 0.13145 0.087234 0.423183 0.0833846 0.063295 -0.25047 0.243038 -0.0284172 0.0400642 0.0891053 -0.0579803 -0.0230444 -0.326149 -0.0253071 -0.158669 0.548843 -0.42627 0.221134 -0.121301 0.0212796 0.0551224 -0.589078 0.0200291 -0.277097 -0.288542 0.0254787 -0.160476 -0.141789 -0.293261 -0.21338 -0.1167 -0.119313 -0.446201 -0.00751316 0.128215 -0.19467 -0.804022 0.0194252 -0.20267 -0.211828 0.080529 -0.216328 -0.243635 -0.438465 -0.15453 -0.197757 -0.0343432 -0.565487 0.00961557 -1.27127e-05 -0.322131 0.228325 -0.103021 -0.00986875 -0.105283 -0.0591698 -0.0723814 -0.380633 -0.118771 -0.252307 -0.0620547 -0.449093 -0.112092 -0.256141 0.065302 -0.114389 -0.144998 -0.0777138 -0.253052 -0.197837 -0.22523 -0.133616 -0.0994308 -0.0859293 -0.376004 -0.216633 0.142886 -0.114469 0.0312695 -0.000785722 -0.178294 -0.267415 -0.157483 -0.0221146 -0.0468116 0.00174433 -0.342898 0.698464 0.316228 0.31355 0.498689 0.129269 0.161381 1.73672e-05 0.161403 0.239083 0.385121 -0.37605 -0.402173 -0.450527 -0.128489 -0.25344 -0.212009 -0.454214 -0.165907 -0.230135 -0.137112 -0.469103 0.115718 0.0371963 0.0371511 -0.0158449 -0.191366 0.0234395 -0.0397417 0.0899295 -0.401348 0.0105043 -0.0741844 -0.0974282 -0.234627 -0.0633907 -0.0508298 0.0230009 -0.407392 -0.0595367 -0.0153318 -0.684087 -0.0503548 -0.208765 0.171544 -0.778659 -1.04647 -0.103866 0.0398783 0.0302551 0.0612673 -0.294919 -0.117527 0.0485655 0.0139678 0.0862374 -0.329048 0.167391 0.508112 0.397822 -0.409201 -0.00785807 0.186209 -0.341727 0.345182 -0.542424 -0.52646
label 10 25 7 2 19 30 1 27 33 13 17 31 16 0 26 12 6 28 23 8 22 15 14 20 4 32 24 21 18 29 3 11 5 9
probA -3.7366 -3.6169 -3.54002 -3.61892 -3.70086 -3.39366 -3.99662 -3.63876 -3.71691 -3.82666 -3.5353 -3.58016 -3.55632 -3.66246 -3.82333 -3.60821 -3.41177 -3.5879 -3.6843 -3.55519 -3.53926 -4.24088 -3.67626 -3.63148 -3.74504 -3.82429 -3.51932 -3.53248 -3.62321 -3.47818 -3.73791 -3.69378 -0.562741 -3.55089 -3.48602 -3.53453 -3.54093 -3.25621 -3.6942 -3.53805 -4.11827 -3.35757 -3.46714 -3.86144 -3.70756 -3.52598 -3.62172 -3.52801 -3.33542 -4.03783 -3.6995 -3.51159 -3.39676 -3.96267 -3.53818 -3.47977 -3.58257 -3.88906 -3.40768 -3.44111 -3.78485 -3.3662 -3.5131 -3.64592 -0.126608 -3.87166 -3.98079 -3.71041 -2.954 -3.6744 -3.64142 -3.71524 -3.72006 -3.55285 -3.53465 -3.71405 -3.71096 -3.71964 -3.66143 -3.97888 -3.58333 -3.71475 -3.60591 -3.94549 -3.73917 -3.70496 -3.64252 -3.73596 -3.65938 -3.95758 -3.86324 -3.49584 -3.68155 -3.66155 -3.68628 -3.21397 -3.64543 -3.61383 -3.21 -3.61685 -3.55324 -3.55738 -3.66268 -3.3808 -3.48863 -3.5944 -3.5708 -3.62409 -3.55277 -3.71194 -3.56777 -3.69565 -3.52588 -3.52102 -3.65327 -3.5993 -3.50065 -3.59837 -3.54006 -3.66408 -3.553 -3.40732 -3.69673 -3.53717 -3.59223 -2.24296 -3.70084 -3.75269 -3.7057 -3.6458 -3.62878 -3.66572 -3.55961 -3.51617 -3.61341 -3.76434 -3.66305 -3.56339 -3.97239 -3.43328 -3.65667 -3.56563 -3.85046 -3.76245 -3.68076 -3.62927 -3.75381 -3.67517 -4.17579 -4.41139 -3.41019 -3.58191 -3.60958 -3.62084 -2.12854 -3.46973 -3.72069 -4.15657 -3.66958 -3.80043 -3.50608 -3.52388 -3.43743 -3.82307 -3.72175 -3.55574 -3.63743 -3.50178 -3.70491 -3.63029 -3.64046 -3.785 -3.71077 -3.60663 -3.85369 -3.63872 -3.62213 -3.66246 -3.52179 -3.53811 -3.63856 -3.68626 -1.47004 -3.49267 -3.42224 -3.22325 -3.28341 -3.43553 -3.33969 -2.92164 -3.62146 -3.38783 -3.11348 -3.78909 -3.20862 -3.17945 -3.55225 -3.96495 -3.37352 -3.34989 -3.25163 -3.38703 -3.34441 -3.47189 -3.88729 -3.18041 -3.17113 -3.24976 -2.8542 -0.354908 -3.63898 -3.65688 -3.84214 -3.55119 -3.59942 -3.40832 -3.71506 -3.83811 -3.5225 -3.58266 -3.57563 -3.66934 -3.54742 -3.56879 -4.13208 -3.81168 -3.67857 -3.7908 -3.79459 -3.57636 -3.59646 -3.60658 -3.50422 -3.72849 -3.69979 -2.13797 -3.57573 -3.69046 -3.50437 -3.53295 -3.48773 -3.69434 -3.6364 -3.53257 -3.69569 -3.62408 -3.65969 -3.47111 -3.56639 -3.71299 -3.69989 -3.61144 -3.77005 -3.62226 -3.50835 -3.53412 -3.47837 -3.43659 -3.62631 -3.63236 -1.55485 -3.74111 -3.52204 -3.64263 -3.85474 -3.56646 -3.57364 -3.70338 -3.51374 -4.04598 -3.71357 -3.63253 -3.5625 -3.78995 -3.59876 -3.58808 -3.6309 -3.88794 -3.56316 -3.47679 -3.74184 -3.49842 -3.56271 -3.72088 -1.69067 -3.6716 -3.14689 -3.69706 -3.67664 -3.80793 -3.6061 -3.32065 -3.40818 -3.97188 -3.71965 -3.62439 -3.90088 -3.78806 -3.64189 -3.72268 -3.38639 -3.60268 -3.56512 -3.71148 -3.65312 -4.20759 -3.88605 -0.467508 -3.40878 -3.39215 -3.45412 -3.52899 -3.47699 -3.49324 -3.38422 -3.55174 -3.6021 -3.45326 -3.66138 -3.58992 -3.42279 -3.58051 -3.558 -3.44317 -3.39046 -3.40092 -3.37138 -3.47677 -3.42766 -4.19697 -3.54682 -3.53663 -3.651 -3.42686 -3.50249 -3.73336 -3.5427 -3.48257 -3.43324 -3.78056 -3.49926 -3.41277 -3.60779 -3.86028 -3.38624 -3.41862 -3.52732 -3.32762 -3.67277 -3.49434 -0.231226 -3.49253 -3.64676 -3.58117 -3.32046 -3.64602 -3.57613 -3.48597 -3.45634 -3.59698 -3.14361 -3.5182 -3.35727 -3.59259 -3.43901 -3.44909 -3.56492 -3.62806 -3.67908 -3.30794 -0.847818 -3.70972 -3.38324 -4.26218 -3.30285 -3.61332 -3.51786 -3.81945 -3.72845 -3.75856 -3.60812 -3.93972 -3.6254 -3.70286 -3.85245 -3.44162 -3.47433 -3.62555 -3.57595 -2.22057 -3.62897 -3.42205 -3.76556 -3.77249 -3.55826 -3.65848 -4.27472 -3.77116 -3.64205 -3.70711 -3.82849 -3.59306 -3.62104 -3.81262 -3.57476 -3.64155 -3.66902 -0.797496 -3.49527 -3.7729 -4.61179 -3.4559 -3.37436 -3.6634 -3.55048 -3.4631 -3.5324 -3.53396 -3.45864 -3.492 -3.49553 -3.56256 -3.32616 -3.25915 -0.898129 -3.02126 -3.71669 -3.65636 -4.71322 -3.62361 -3.56378 -3.55551 -3.94609 -3.47323 -4.59564 -4.14468 -3.25752 -3.58766 -3.25327 -3.59723 -0.637746 -3.78626 -3.34621 -3.3676 -3.91349 -3.50666 -3.5948 -3.25545 -4.00403 -3.34462 -3.35005 -3.81731 -3.57474 -4.07458 -3.7752 -1.69183 -3.56234 -3.56861 -3.78857 -3.7177 -3.67883 -3.64845 -3.711 -3.60103 -3.51921 -3.55968 -3.86601 -3.77737 -3.64295 -3.09536 -3.50235 -3.63595 -3.56478 -3.51169 -3.60005 -3.57106 -3.52461 -3.5506 -3.40808 -3.4154 -3.48467 -3.51198 -2.65117 -3.66992 -3.56567 -3.50696 -3.733 -3.54373 -4.65564 -4.11455 -3.37444 -3.46297 -3.51648 -3.48858 -1.26606 -3.74973 -3.70596 -3.68102 -3.9147 -3.66628 -3.64599 -3.76345 -3.59703 -3.88432 -3.75036 -2.52886 -3.67143 -3.86174 -3.63678 -3.57284 -3.65549 -3.47255 -3.5124 -3.66977 -3.65073 0.202667 -3.55014 -3.57495 -3.50474 -3.47551 -3.354 -3.47426 -3.61603 -3.58969 -0.563726 -3.65822 -3.62418 -3.67873 -3.49379 -3.48294 -3.59635 -3.62569 -2.54377 -3.4886 -3.5238 -3.77116 -3.45332 -4.19949 -3.66027 -1.60411 -4.23591 -3.29294 -3.49226 -3.52411 -3.53101 -1.44339 -3.3239 -3.46494 -3.44785 -3.50771 -1.88161 -3.40444 -3.76602 -3.47487 -0.747189 -3.44077 -3.7468 -0.650089 -3.73829 -0.210632 -1.3296
probB -0.0542162 0.042901 -0.0106339 0.126129 0.115166 0.282022 0.0957506 0.0303274 -0.0578649 0.253117 -0.0138971 -0.00702972 0.194402 0.109372 0.03432 0.0668706 0.428761 0.298958 0.0522247 0.0477718 0.0638665 -0.0722706 0.0669628 0.0334449 0.0603932 -0.040683 0.012504 0.0034617 -0.162809 -0.0915831 0.0771945 0.221969 -2.46127 0.202126 0.0858557 0.137681 0.157103 0.314709 0.0763674 0.0987938 -0.209403 0.171039 0.070544 0.0440637 -0.0195451 0.112141 0.231341 0.20406 0.184293 -0.179369 0.0306743 0.117307 0.0841174 -0.0211801 0.0921182 -0.0143478 0.101737 -0.00510791 0.0175383 0.0461399 -0.0779697 -0.0181482 0.279071 0.120231 -2.74732 -0.16913 -0.0266037 -0.0915933 -0.112743 -0.0423808 -0.13681 -0.148687 0.0198881 -0.121791 -0.183452 0.00738028 -0.028829 -0.100135 -0.187912 -0.124697 0.201066 -0.125467 -0.181359 -0.301752 0.0118587 -0.155476 -0.129218 -0.259242 -0.0576765 -0.498224 -0.222585 -0.264322 -0.237488 -0.0921383 -0.14152 -0.0445939 0.033067 0.114252 0.29705 0.0889655 0.0350511 0.0844936 0.190593 0.0134733 0.0664519 0.189679 0.0721598 0.0745008 0.0319946 0.179692 0.312574 0.0560463 0.0612238 0.0799545 0.0913068 0.0611207 0.0217401 0.0809848 0.0896308 0.0112022 0.0630288 -0.184316 -0.052032 0.0796829 0.117193 -0.694967 -0.00580415 0.115297 -0.0716403 -0.0638147 -0.055975 0.0161977 -0.0836249 -0.124605 0.124778 0.0282612 -0.0350097 -0.11973 0.0596814 0.223019 -0.015056 0.00254985 -0.0544484 -0.00993805 -0.121159 -0.203288 -0.0483807 -0.0888914 -0.121105 -0.0341726 -0.196893 -0.163812 -0.0438405 -0.0931186 -1.05914 0.281755 -0.0293117 -0.0267652 -0.0417664 0.0499035 -0.0653723 -0.117342 0.223795 0.0337901 -0.0724505 -0.129553 0.378955 0.139704 -0.0247021 -0.0288714 -0.0431676 -0.0203726 -0.0522668 -0.0691994 -0.0110859 -0.0718802 -0.0249367 -0.0513651 -0.212755 -0.130744 -0.0276033 -0.0130819 -1.68721 -0.295174 -0.351373 -0.190976 -0.0794796 -0.327819 -0.250037 0.08074 -0.0951264 -0.224152 -0.320037 -0.25073 0.00527838 -0.12815 -0.0287489 -0.281466 -0.123733 -0.242251 -0.252875 -0.20405 -0.200689 -0.374728 -0.458067 -0.379705 -0.319956 -0.233319 0.0121425 -2.75288 0.0168071 -0.00220894 0.165529 -0.0167012 -0.0515217 0.232592 0.0702849 -0.022101 -0.0838453 0.376791 0.387318 0.0133547 0.0723215 -0.0143937 -0.00927984 -0.0342881 -0.0538895 0.0931489 0.203369 0.0215817 -0.0716447 -0.15655 -0.1487 0.00784372 -0.0128271 -0.984485 0.00165709 0.157788 -0.106702 -0.0615975 0.267784 0.0245502 0.00948245 0.00295295 0.341957 0.217342 0.0539531 0.035474 -0.0580016 0.0696372 -0.000491685 -0.0379477 0.0591979 0.012002 -0.0160404 -0.0271268 -0.0874882 -0.09587 0.0108214 0.0737812 -1.47793 0.337899 -0.0707611 -0.0654899 0.121847 0.0502491 0.287311 0.232559 0.349168 0.135965 0.0407656 0.0438788 -0.0104583 0.0755652 -0.00856596 -0.0361745 0.0285967 0.0110388 -0.0335528 -0.0759763 0.00708072 -0.13739 0.389847 0.295124 -1.41479 -0.249253 -0.431729 0.220969 -0.0586662 -0.271417 -0.06141 0.163669 0.0333078 -0.0661768 -0.103997 -0.0721284 -0.243714 -0.122676 -0.132912 -0.0739368 -0.342645 -0.106234 -0.18745 -0.536952 -0.17538 -0.243853 0.00533236 -2.91588 -0.0602934 0.193293 0.15897 0.0706398 -0.138926 0.19383 0.304682 0.0927 0.11376 0.0394943 0.158595 0.0274114 0.00840171 0.119681 0.0870706 0.00961599 -0.0730895 -0.0587478 -0.0843878 0.0325464 -0.0249577 1.2347 0.123659 0.066516 0.172259 0.10043 0.393268 0.034847 0.131254 0.151861 0.109179 0.120782 0.105274 0.0270514 0.106464 0.153466 0.0380002 -0.0372071 0.00243054 -0.0386804 0.0592832 0.125208 -2.60396 -0.202328 -0.151529 0.0219843 0.186409 -0.211849 -0.224739 -0.0472408 -0.0979681 -0.171007 -0.0762366 -0.319076 -0.241902 -0.130439 -0.144858 -0.206999 -0.34809 -0.138888 -0.250913 0.0259034 -2.11382 -0.0707693 -0.187654 -0.098747 0.13797 0.00505941 -0.0631963 0.0419017 0.0362831 -0.0560826 -0.0826641 0.166461 -0.0390363 -0.148708 -0.0362469 -0.204743 -0.0806945 -0.0585503 -0.15276 -0.845204 -0.00468493 0.330238 0.118881 -0.0551737 0.0648664 -0.0322382 0.0116437 0.00894417 -0.0690405 -0.0176494 -0.248425 -0.0305776 -0.0433322 -0.330305 -0.12136 -0.0496214 -0.106426 -2.37465 0.490482 -0.202311 -0.178571 0.198909 0.176677 0.00331944 0.0995848 0.0478798 0.0958112 -0.0631417 0.0935315 0.0498766 -0.153515 -0.0715981 -0.212632 0.167318 -2.02713 -0.0960935 -0.326618 -0.188492 0.365263 -0.297949 -0.441869 -0.440354 -0.179721 -0.281922 0.122622 0.0707615 -0.477346 -0.287023 -0.172487 -0.355391 -2.69436 -0.0770108 -0.227229 -0.153583 -0.175998 -0.350537 -0.240866 -0.19286 -0.0441641 -0.230579 -0.291684 -0.188414 -0.223412 0.0216113 -0.0574955 -1.52071 0.0865298 -0.016251 0.0413981 0.0170918 -0.045258 0.0109109 0.0293898 -0.0593807 -0.0847454 -0.165823 -0.0628236 0.0205898 0.200742 -0.0257284 0.0547113 0.0189063 -0.0511999 -0.130778 -0.0571033 -0.0168384 -0.0603701 -0.0274917 -0.259233 -0.205655 -0.124865 -0.161843 -0.49445 0.0523145 -0.0542538 -0.029207 -0.0405788 0.00326168 -0.0721978 -0.215519 -0.188641 -0.0479884 -0.0389828 -0.108597 -1.64584 -0.0974988 -0.0792298 -0.0224057 -0.162695 -0.100743 -0.146647 -0.217143 -0.22959 -0.0262427 -0.0543995 -0.779282 -0.0312765 0.0662471 0.0145834 0.0180875 -0.0222226 -0.182215 -0.130376 0.0196759 -0.00756272 -3.26226 0.0517795 0.077579 0.0132929 0.0203282 -0.0611062 -0.00148534 -0.000625206 0.10095 -2.34145 -0.00506141 0.0773731 0.0542066 -0.238292 -0.144348 -0.0262416 -0.0296551 -0.542807 -0.0548741 -0.0649613 0.0483645 -0.168059 0.445569 0.0914224 -1.5011 -0.14503 -0.156988 -0.0888209 0.00324999 -0.0346596 -1.5365 -0.134077 -0.0421709 0.101188 -0.00262487 -1.00312 0.0915438 0.252096 0.26903 -1.9311 0.112031 0.163088 -2.07665 0.183972 -2.84859 -1.72636
nr_sv 32 29 40 28 36 40 37 34 35 37 48 29 28 31 35 39 30 47 42 38 36 29 45 32 29 35 37 33 31 23 21 33 34 1
SV
0 0 0 23.98875905184385 0 14.71287637343005 77.20524575593873 25.19478912897227 0 103.3711742229739 0 37.41581333189395 0 4.717984973202307 45.42072434868124 0 0 50.35552854934107 0 17.52394111781075 10.32985354382832 97.58426719812081 0 0 0 168.9524233840417 12.36060115544787 27.84163468084474 0 0 10.72950082797418 0 0 1:1 2:1 3:1 4:1 5:1 6:1 7:1 8:1 9:1 10:1 11:1 12:1 13:1 14:1 15:1 16:1 17:1 18:1 19:1 20:1 21:1 22:1 23:1 24:1 25:1 26:1 27:1 28:1 29:1 30:1 31:1 32:1 33:1 34:1 35:1 36:1 37:1 38:1 39:1 40:1 41:1 42:1 43:0.11764706 44:1 45:1 46:1 47:1 48:1 49:1 50:1 51:1 52:1 53:1 54:1 55:1 56:1 57:1 58:1 59:1 60:1 61:1 62:1 63:1 64:0.37254902 65:0.066666667 66:0.61960784 67:1 68:1 69:1 70:1 71:1 72:0.81960784 73:0.44313725 74:0.26666667 75:0.24313725 76:0.44313725 77:0.8 78:1 79:1 80:1 81:0.066666667 82:0.24313725 83:1 84:1 85:1 86:0.61960784 87:0.26666667 88:0.066666667 89:0.066666667 90:0.066666667 91:0.066666667 92:0.066666667 93:0.26666667 94:1 95:1 96:1 97:0.066666667 98:0.24313725 99:1 100:1 101:0.8 102:0.24313725 103:0.066666667 104:0.066666667 105:0.24313725 106:0.26666667 107:0.066666667 108:0.066666667 109:0.066666667 110:0.61960784 111:1 112:1 113:0.066666667 114:0.24313725 115:1 116:1 117:0.1254902 118:0.066666667 119:0.066666667 120:0.61960784 121:1 122:1 123:0.81960784 124:0.066666667 125:0.066666667 126:0.24313725 127:1 128:1 129:0.066666667 130:0.066666667 131:0.8 132:1 133:0.41960784 134:0.26666667 135:0.44313725 136:1 137:1 138:1 139:0.41960784 140:0.066666667 141:0.066666667 142:0.24313725 143:1 144:1 145:0.066666667 146:0.066666667 147:0.61960784 148:1 149:1 150:1 151:1 152:0.81960784 153:0.44313725 154:0.24313725 155:0.066666667 156:0.066666667 157:0.066666667 158:0.066666667 159:1 160:1 161:0.066666667 162:0.066666667 163:0.24313725 164:1 165:1 166:1 167:0.41960784 168:0.24313725 169:0.066666667 170:0.24313725 171:0.44313725 172:0.44313725 173:0.066666667 174:0.066666667 175:0.61960784 176:0.11372549 177:0.066666667 178:0.066666667 179:0.26666667 180:1 181:1 182:0.44313725 183:0.066666667 184:0.066666667 185:0.61960784 186:1 187:1 188:0.61960784 189:0.066666667 190:0.066666667 191:0.44313725 192:1 193:0.066666667 194:0.066666667 195:0.066666667 196:1 197:1 198:0.24313725 199:0.066666667 200:0.26666667 201:1 202:1 203:1 204:0.61960784 205:0.066666667 206:0.066666667 207:0.066666667 208:1 209:0.26666667 210:0.066666667 211:0.066666667 212:0.8 213:1 214:0.24313725 215:0.066666667 216:0.066666667 217:0.81960784 218:1 219:0.81960784 220:0.24313725 221:0.066666667 222:0.066666667 223:0.066666667 224:0.61960784 225:0.41960784 226:0.066666667 227:0.066666667 228:0.61960784 229:1 230:0.44313725 231:0.066666667 232:0.066666667 233:0.066666667 234:0.24313725 235:0.066666667 236:0.24313725 237:0.61960784 238:0.24313725 239:0.24313725 240:0.61960784 241:0.81960784 242:0.066666667 243:0.066666667 244:0.44313725 245:1 246:0.81960784 247:0.44313725 248:0.066666667 249:0.066666667 250:0.066666667 251:0.44313725 252:0.81960784 253:1 254:1 255:1 256:1 257:0.27843137 258:0.24313725 259:0.066666667 260:0.26666667 261:1 262:1 263:1 264:0.81960784 265:0.61960784 266:0.81960784 267:1 268:1 269:1 270:1 271:1 272:1 273:1 274:0.24313725 275:0.066666667 276:0.066666667 277:1 278:1 279:0.54901961 280:1 281:1 282:1 283:1 284:1 285:1 286:0.58823529 287:1 288:1 289:1 290:0.26666667 291:0.066666667 292:0.24313725 293:0.8 294:1 295:1 296:1 297:1 298:1 299:1 300:1 301:1 302:1 303:1 304:1 305:1 306:0.61960784 307:0.81960784 308:1 309:1 310:0.30196078 311:1 312:1 313:1 314:1 315:1 316:1 317:1 318:1 319:1 320:1 321:1 322:1 323:1 324:1 325:1 326:1 327:1 328:0.83137255 329:1 330:1 331:1 332:1 333:1 334:1 335:1 336:1 
17.83950592939398 35.55882540719195 0 35.23691022980132 58.14735995713436 79.32818935187453 9.499607764618002 42.65844260060871 72.54941786840371 36.56230226476284 0 0 4.63669325111452 25.63448550454214 0 47.59415075703757 5.619181759955937 0 27.85485102343999 0 31.86289617578123 37.28419669204422 33.9749465511721 23.33727914660543 9.343349102024719 0 29.45066751775167 43.92419211406669 8.134156616954051 52.86604302763921 58.40371674166041 110.3907521183088 19.11631171668703 1:1 2:1 3:1 4:1 5:1 6:1 7:1 8:1 9:0.58823529 10:1 11:1 12:1 13:1 14:0.28235294 15:1 16:1 17:1 18:1 19:1 20:1 21:1 22:1 23:1 24:1 25:1 26:0.41176471 27:1 28:1 29:1 30:1 31:1 32:0.8 33:1 34:1 35:1 36:1 37:1 38:1 39:1 40:1 41:1 42:1 43:1 44:0.87058824 45:1 46:0.81960784 47:1 48:0.81960784 49:1 50:1 51:1 52:1 53:1 54:1 55:1 56:1 57:0.81960784 58:0.8 59:1 60:1 61:1 62:1 63:1 64:0.81960784 65:0.49411765 66:1 67:0.35294118 68:0.41960784 69:0.51764706 70:1 71:0.44313725 72:0.24313725 73:0.066666667 74:0.066666667 75:0.066666667 76:0.81960784 77:0.27058824 78:1 79:1 80:1 81:1 82:1 83:1 84:1 85:0.81960784 86:0.24313725 87:0.066666667 88:0.066666667 89:0.066666667 90:0.066666667 91:0.066666667 92:0.24313725 93:1 94:1 95:1 96:1 97:1 98:1 99:1 100:1 101:0.066666667 102:0.066666667 103:0.066666667 104:0.61960784 105:0.8 106:0.26666667 107:0.066666667 108:0.066666667 109:0.44313725 110:1 111:1 112:1 113:1 114:1 115:1 116:0.61960784 117:0.066666667 118:0.066666667 119:0.81960784 120:1 121:1 122:0.61960784 123:0.066666667 124:0.066666667 125:0.26666667 126:1 127:1 128:1 129:0.090196078 130:1 131:1 132:0.61960784 133:0.066666667 134:0.26666667 135:0.8 136:1 137:0.61960784 138:0.066666667 139:0.066666667 140:0.066666667 141:0.066666667 142:0.61960784 143:1 144:1 145:1 146:1 147:0.70196078 148:1 149:1 150:1 151:1 152:0.24313725 153:0.066666667 154:0.24313725 155:0.61960784 156:0.066666667 157:0.066666667 158:0.24313725 159:1 160:1 161:1 162:1 163:1 164:1 165:1 166:1 167:0.24313725 168:0.066666667 169:0.24313725 170:1 171:1 172:0.24313725 173:0.066666667 174:0.066666667 175:0.61960784 176:1 177:1 178:1 179:0.57647059 180:0.35294118 181:1 182:0.44313725 183:0.066666667 184:0.24313725 185:1 186:1 187:1 188:0.24313725 189:0.066666667 190:0.066666667 191:0.26666667 192:0.81960784 193:1 194:1 195:1 196:1 197:1 198:0.24313725 199:0.066666667 200:0.24313725 201:1 202:1 203:0.8 204:0.26666667 205:0.066666667 206:0.066666667 207:0.066666667 208:0.44313725 209:1 210:1 211:1 212:1 213:1 214:0.24313725 215:0.066666667 216:0.066666667 217:0.26666667 218:0.24313725 219:0.26666667 220:0.24313725 221:1 222:0.61960784 223:1 224:1 225:1 226:1 227:1 228:1 229:1 230:0.81960784 231:0.066666667 232:0.066666667 233:0.066666667 234:0.066666667 235:0.066666667 236:0.61960784 237:1 238:1 239:1 240:1 241:1 242:1 243:1 244:1 245:1 246:1 247:0.81960784 248:0.44313725 249:0.44313725 250:0.44313725 251:1 252:1 253:1 254:1 255:1 256:1 257:1 258:1 259:1 260:1 261:1 262:1 263:1 264:1 265:1 266:1 267:1 268:1 269:1 270:1 271:1 272:1 273:1 274:1 275:1 276:0.49019608 277:1 278:0.48235294 279:1 280:1 281:1 282:1 283:1 284:1 285:1 286:1 287:1 288:1 289:1 290:1 291:1 292:1 293:1 294:1 295:1 296:1 297:1 298:1 299:1 300:1 301:1 302:1 303:1 304:1 305:1 306:1 307:1 308:1 309:1 310:1 311:1 312:1 313:1 314:1 315:1 316:1 317:1 318:0.35294118 319:1 320:1 321:1 322:1 323:1 324:1 325:1 326:1 327:1 328:1 329:1 330:1 331:0.28235294 332:1 333:1 334:1 335:1 336:0.81176471 
0 0 0 0 0 0 0 0 0 0 0 0 0 0 0 0 0 0 0 0 0 20.41396029614795 0 0 0 0 0 0 0 0 0 0 0 1:1 2:1 3:0.43529412 4:1 5:1 6:1 7:1 8:1 9:1 10:1 11:1 12:1 13:1 14:1 15:1 16:1 17:1 18:1 19:1 20:1 21:1 22:1 23:1 24:1 25:1 26:1 27:1 28:1 29:1 30:1 31:1 32:1 33:1 34:1 35:1 36:1 37:1 38:1 39:1 40:1 41:1 42:1 43:1 44:1 45:1 46:1 47:1 48:1 49:0.76078431 50:1 51:0.69411765 52:1 53:1 54:1 55:1 56:1 57:1 58:0.57254902 59:1 60:1 61:1 62:1 63:1 64:1 65:1 66:1 67:1 68:1 69:1 70:1 71:0.8 72:0.61960784 73:0.41960784 74:0.26666667 75:0.24313725 76:0.61960784 77:1 78:1 79:1 80:1 81:1 82:1 83:1 84:1 85:1 86:0.61960784 87:0.26666667 88:0.066666667 89:0.066666667 90:0.066666667 91:0.066666667 92:0.066666667 93:0.26666667 94:0.81960784 95:1 96:1 97:1 98:1 99:0.019607843 100:1 101:0.8 102:0.066666667 103:0.066666667 104:0.24313725 105:0.41960784 106:0.24313725 107:0.24313725 108:0.066666667 109:0.066666667 110:0.61960784 111:1 112:1 113:1 114:1 115:1 116:1 117:0.61960784 118:0.24313725 119:0.26666667 120:0.8 121:1 122:1 123:0.81960784 124:0.066666667 125:0.066666667 126:0.24313725 127:1 128:1 129:1 130:0.63137255 131:1 132:1 133:1 134:0.36078431 135:1 136:1 137:1 138:0.81960784 139:0.41960784 140:0.066666667 141:0.066666667 142:0.26666667 143:1 144:1 145:1 146:1 147:1 148:0.4 149:1 150:1 151:0.3254902 152:0.44313725 153:0.26666667 154:0.066666667 155:0.066666667 156:0.066666667 157:0.066666667 158:0.24313725 159:1 160:1 161:1 162:1 163:1 164:1 165:1 166:0.44313725 167:0.066666667 168:0.066666667 169:0.066666667 170:0.44313725 171:0.61960784 172:0.24313725 173:0.066666667 174:0.24313725 175:1 176:0.61960784 177:1 178:1 179:1 180:1 181:0.81960784 182:0.066666667 183:0.066666667 184:0.44313725 185:0.7372549 186:1 187:1 188:0.24313725 189:0.066666667 190:0.24313725 191:1 192:0.61960784 193:1 194:1 195:1 196:0.3372549 197:0.44313725 198:0.066666667 199:0.066666667 200:0.81960784 201:1 202:1 203:0.81960784 204:0.26666667 205:0.066666667 206:0.24313725 207:1 208:0.61960784 209:1 210:1 211:1 212:1 213:0.24313725 214:0.066666667 215:0.066666667 216:0.24313725 217:0.81960784 218:0.8 219:0.26666667 220:0.066666667 221:0.066666667 222:0.066666667 223:0.81960784 224:1 225:1 226:1 227:1 228:1 229:1 230:0.24313725 231:0.066666667 232:0.066666667 233:0.066666667 234:0.066666667 235:0.066666667 236:0.44313725 237:0.066666667 238:0.066666667 239:0.24313725 240:1 241:1 242:1 243:1 244:1 245:1 246:0.81960784 247:0.44313725 248:0.24313725 249:0.26666667 250:0.44313725 251:1 252:1 253:0.81960784 254:0.8 255:1 256:1 257:1 258:1 259:1 260:1 261:1 262:1 263:1 264:1 265:1 266:1 267:1 268:1 269:1 270:1 271:1 272:1 273:1 274:1 275:1 276:1 277:1 278:1 279:1 280:1 281:1 282:1 283:1 284:1 285:1 286:1 287:1 288:1 289:1 290:0.75294118 291:1 292:1 293:1 294:1 295:1 296:0.8 297:1 298:1 299:0.65882353 300:1 301:1 302:1 303:1 304:1 305:1 306:1 307:1 308:1 309:1 310:1 311:1 312:1 313:1 314:0.65490196 315:1 316:1 317:1 318:1 319:0.29019608 320:1 321:1 322:1 323:1 324:1 325:1 326:0.43529412 327:1 328:1 329:1 330:0.7372549 331:1 332:1 333:1 334:1 335:1 336:1 
36.40447349105575 0 0 0 0 0 0 0 0 21.50228868560525 9.340182445196513 0 0 0 0 0 0 46.64768768999379 0 46.85691624518223 0 0 0 0 0 0 0 0 0 0 0 0 0 1:1 2:1 3:1 4:1 5:1 6:1 7:1 8:1 9:1 10:1 11:1 12:1 13:1 14:1 15:1 16:1 17:0.26666667 18:1 19:1 20:1 21:1 22:1 23:1 24:1 25:1 26:1 27:1 28:1 29:0.76078431 30:1 31:1 32:1 33:1 34:1 35:1 36:1 37:1 38:1 39:1 40:1 41:1 42:1 43:1 44:1 45:1 46:1 47:1 48:1 49:1 50:1 51:1 52:1 53:1 54:1 55:1 56:1 57:1 58:1 59:1 60:1 61:1 62:1 63:1 64:1 65:1 66:0.61960784 67:0.24313725 68:0.44313725 69:1 70:1 71:1 72:0.81960784 73:0.44313725 74:0.61960784 75:0.61960784 76:1 77:1 78:1 79:1 80:1 81:1 82:0.24313725 83:0.066666667 84:0.24313725 85:1 86:0.44313725 87:0.26666667 88:0.066666667 89:0.066666667 90:0.066666667 91:0.066666667 92:0.066666667 93:1 94:1 95:1 96:1 97:0.8 98:0.066666667 99:0.066666667 100:0.61960784 101:0.24313725 102:0.066666667 103:0.066666667 104:0.24313725 105:0.066666667 106:0.24313725 107:0.066666667 108:0.066666667 109:0.41960784 110:1 111:1 112:1 113:0.81960784 114:0.066666667 115:0.066666667 116:0.61960784 117:0.066666667 118:0.066666667 119:0.44313725 120:1 121:1 122:0.8 123:0.26666667 124:0.066666667 125:0.26666667 126:1 127:1 128:0.5254902 129:0.44313725 130:0.066666667 131:0.066666667 132:0.61960784 133:0.24313725 134:0.26666667 135:0.8 136:1 137:1 138:0.81960784 139:0.066666667 140:0.066666667 141:0.066666667 142:1 143:1 144:1 145:0.44313725 146:0.066666667 147:0.26666667 148:1 149:1 150:1 151:1 152:0.61960784 153:0.44313725 154:0.066666667 155:0.066666667 156:0.066666667 157:0.066666667 158:0.81960784 159:1 160:1 161:0.24313725 162:0.066666667 163:0.24313725 164:1 165:1 166:0.81960784 167:0.24313725 168:0.066666667 169:0.066666667 170:0.44313725 171:0.24313725 172:0.066666667 173:0.066666667 174:0.61960784 175:1 176:1 177:0.26666667 178:0.066666667 179:0.61960784 180:1 181:0.39607843 182:0.066666667 183:0.066666667 184:0.24313725 185:0.81960784 186:1 187:0.37254902 188:0.066666667 189:0.066666667 190:0.44313725 191:0.55294118 192:1 193:0.066666667 194:0.066666667 195:0.61960784 196:1 197:0.24313725 198:0.066666667 199:0.066666667 200:1 201:1 202:1 203:0.61960784 204:0.066666667 205:0.066666667 206:0.24313725 207:1 208:0.25882353 209:0.066666667 210:0.066666667 211:0.81960784 212:1 213:0.26666667 214:0.066666667 215:0.26666667 216:0.8 217:1 218:1 219:0.26666667 220:0.066666667 221:0.066666667 222:0.24313725 223:1 225:0.066666667 226:0.24313725 227:1 228:1 229:0.41960784 230:0.066666667 231:0.066666667 232:0.24313725 233:0.24313725 234:0.24313725 235:0.066666667 236:0.44313725 237:0.066666667 238:0.066666667 239:0.24313725 240:1 241:0.066666667 242:0.61960784 243:1 244:1 245:1 246:0.24313725 247:0.066666667 248:0.066666667 249:0.066666667 250:0.24313725 251:0.81960784 252:1 253:0.81960784 254:0.1254902 255:1 256:1 257:1 258:1 259:1 260:1 261:1 262:1 263:0.61960784 264:0.61960784 265:0.61960784 266:1 267:0.57254902 268:1 269:1 270:0.61960784 271:1 272:1 273:1 274:0.43137255 275:1 276:1 277:1 278:1 279:1 280:1 281:1 282:1 283:0.84705882 284:1 285:1 286:1 287:1 288:1 289:1 290:1 291:1 292:1 293:1 294:1 295:1 296:1 297:1 298:1 299:1 300:1 301:1 302:1 303:1 304:1 305:1 306:1 307:1 308:1 309:1 310:1 311:1 312:1 313:0.64313725 314:1 315:1 316:1 317:1 318:1 319:1 320:1 321:1 322:1 323:1 324:1 325:0.16470588 326:1 327:1 328:1 329:1 330:1 331:1 332:1 333:1 334:1 335:1 336:1 
42.16270992067479 47.557504914108 56.15777258792571 47.39644548809735 48.33323888554652 58.13710663606678 0 49.50230831446602 31.35935650810769 44.43087294798728 51.78140350978096 10.82624535155962 17.95059065659979 38.01611748007125 76.33118075114827 55.02098323585663 33.770943704 32.7363365495871 55.26689185682318 44.0730480534939 36.13884007708571 73.33701788574575 5.509685420236636 31.21327216514906 9.986361689080999 32.5436629548498 47.97820602838188 63.79998864208743 76.00057605162503 70.41184985053738 0 82.32699667561299 0 1:1 2:1 3:1 4:1 5:1 6:1 7:1 8:1 9:1 10:1 11:1 12:1 13:1 14:1 15:1 16:0.50588235 17:1 18:1 19:1 20:1 21:1 22:1 23:1 24:0.1254902 25:1 26:1 27:1 28:1 29:1 30:1 31:1 32:1 33:1 34:1 35:1 36:1 37:1 38:1 39:0.23529412 40:1 41:1 42:1 43:0.41568627 44:1 45:1 46:1 47:1 48:1 49:0.81960784 50:1 51:1 52:1 53:1 54:1 55:1 56:1 57:1 58:0.54117647 59:1 60:0.75294118 61:1 62:1 63:1 64:1 65:0.24313725 66:1 67:1 68:1 69:1 70:1 71:1 72:1 73:1 74:1 75:1 76:1 77:1 78:1 79:1 80:1 81:0.066666667 82:0.8 83:1 84:1 85:1 86:0.81960784 87:0.44313725 88:0.066666667 89:0.26666667 90:0.24313725 91:0.61960784 92:0.1254902 93:1 94:1 95:1 96:1 97:0.066666667 98:0.44313725 99:1 100:1 101:0.81960784 102:0.24313725 103:0.066666667 104:0.066666667 105:0.066666667 106:0.066666667 107:0.066666667 108:0.24313725 109:0.44313725 110:1 111:1 112:0.29803922 113:0.066666667 114:0.24313725 115:1 116:1 117:1 118:0.81960784 119:0.44313725 120:0.44313725 121:0.81960784 122:0.61960784 123:0.26666667 124:0.066666667 125:0.066666667 126:0.44313725 127:1 128:0.8 129:0.066666667 130:0.066666667 131:0.16078431 132:1 133:1 134:1 135:1 136:1 137:1 138:1 139:0.61960784 140:0.066666667 141:0.066666667 142:0.26666667 143:1 144:0.61960784 145:0.066666667 146:0.066666667 147:0.61960784 148:1 149:0.64313725 150:0.26666667 151:0.44313725 152:0.44313725 153:0.81960784 154:0.81960784 155:0.64313725 156:0.066666667 157:0.066666667 158:0.26666667 159:1 160:0.24313725 161:0.066666667 162:0.066666667 163:0.1254902 164:0.44313725 165:0.066666667 166:0.066666667 167:0.066666667 168:0.066666667 169:0.066666667 170:0.066666667 171:0.066666667 172:0.066666667 173:0.066666667 174:0.61960784 175:1 176:0.26666667 177:0.066666667 178:0.066666667 179:0.44313725 180:0.066666667 181:0.066666667 182:0.24313725 183:0.81960784 184:0.8 185:0.61960784 186:0.44313725 187:0.26666667 188:0.066666667 189:0.26666667 190:1 191:1 192:0.24313725 193:0.066666667 194:0.066666667 195:0.41960784 196:0.066666667 197:0.066666667 198:0.24313725 199:1 200:1 201:0.65882353 202:0.61960784 203:0.066666667 204:0.066666667 205:0.24313725 206:1 207:1 208:0.44313725 209:0.066666667 210:0.24313725 211:0.81960784 212:0.066666667 213:0.066666667 214:0.066666667 215:1 217:1 218:0.24313725 219:0.066666667 220:0.066666667 221:0.81960784 222:1 223:1 224:0.81960784 225:0.24313725 226:1 227:1 228:0.066666667 229:0.066666667 230:0.066666667 231:0.066666667 232:0.24313725 233:0.066666667 234:0.066666667 235:0.066666667 236:0.24313725 237:1 238:1 239:1 240:1 241:1 242:1 243:1 244:1 245:0.61960784 246:0.24313725 247:0.26666667 248:0.24313725 249:0.44313725 250:0.066666667 251:0.066666667 252:0.44313725 253:0.97647059 254:1 255:1 256:1 257:1 258:0.5254902 259:1 260:1 261:1 262:1 263:1 264:1 265:0.8 266:0.24313725 267:0.066666667 268:0.61960784 269:1 270:1 271:1 272:1 273:1 274:1 275:0.17647059 276:1 277:1 278:1 279:1 280:1 281:1 282:0.81960784 283:0.61960784 284:0.61960784 285:0.49411765 286:1 287:1 288:1 289:1 290:1 291:1 292:1 293:1 294:1 295:1 296:1 297:1 298:1 299:1 300:1 301:0.45882353 302:1 303:1 304:1 305:1 306:1 307:1 308:0.17647059 309:1 310:1 311:1 312:1 313:1 314:1 315:1 316:1 317:1 318:1 319:1 320:1 321:1 322:1 323:1 324:1 325:1 326:1 327:0.35294118 328:1 329:1 330:1 331:1 332:1 333:1 334:1 335:1 336:1 
0 0 0 0 0 0 0 0 0 0 0 0 1.287530036501843 0 0 0 0 0 0 0 0 56.24173996848515 0 0 0 0 0 0 0 0 0 0 0 1:1 2:1 3:1 4:1 5:1 6:1 7:1 8:1 9:1 10:1 11:1 12:1 13:1 14:1 15:1 16:1 17:1 18:1 19:1 20:1 21:1 22:1 23:0.7372549 24:1 25:1 26:1 27:1 28:1 29:1 30:1 31:1 32:1 33:1 34:1 35:1 36:1 37:1 38:0.63529412 39:1 40:1 41:1 42:1 43:1 44:1 45:1 46:1 47:1 48:1 49:1 50:1 51:1 52:1 53:1 54:1 55:1 56:1 57:1 58:1 59:1 60:1 61:0.26666667 62:1 63:1 64:1 65:1 66:1 67:0.29411765 68:1 69:1 70:1 71:0.61960784 72:0.61960784 73:0.44313725 74:0.61960784 75:0.8 76:1 77:1 78:1 79:1 80:1 81:0.24313725 82:0.81960784 83:1 84:0.17254902 85:1 86:0.24313725 87:0.066666667 88:0.066666667 89:0.066666667 90:0.066666667 91:0.066666667 92:0.24313725 93:0.81960784 94:1 95:1 96:1 97:0.066666667 98:0.44313725 99:1 100:1 101:0.41960784 102:0.066666667 103:0.066666667 104:0.24313725 105:0.24313725 106:0.24313725 107:0.066666667 108:0.066666667 109:0.066666667 110:1 111:1 112:1 113:0.066666667 114:0.24313725 115:0.56470588 116:1 117:1 118:0.44313725 119:0.44313725 120:1 121:1 122:1 123:0.44313725 124:0.066666667 125:0.066666667 126:0.8 127:1 128:1 129:0.066666667 130:0.24313725 131:1 132:1 133:0.63137255 134:1 135:1 136:1 137:1 138:1 139:0.44313725 140:0.066666667 141:0.066666667 142:0.81960784 143:0.50196078 144:1 145:0.066666667 146:0.24313725 147:1 148:1 149:1 150:0.44313725 151:0.26666667 152:0.24313725 153:0.26666667 154:0.24313725 155:0.066666667 156:0.066666667 157:0.066666667 158:0.81960784 159:1 160:1 161:0.066666667 162:0.26666667 163:1 164:0.81960784 165:0.066666667 166:0.066666667 167:0.066666667 168:0.24313725 169:0.066666667 170:0.26666667 171:0.066666667 172:0.066666667 173:0.066666667 174:1 175:1 176:1 177:0.066666667 178:0.24313725 179:1 180:0.44313725 181:0.066666667 182:0.066666667 183:0.44313725 184:1 185:1 186:1 187:0.26666667 188:0.066666667 189:0.26666667 190:1 191:1 192:1 193:0.066666667 194:0.44313725 195:1 196:0.24313725 197:0.066666667 198:0.24313725 199:1 200:1 201:1 202:1 203:0.066666667 204:0.066666667 205:0.24313725 206:1 207:1 208:1 209:0.066666667 210:0.61960784 211:1 212:0.24313725 213:0.066666667 214:0.066666667 215:0.44313725 216:0.8 217:0.81960784 218:0.24313725 219:0.066666667 220:0.066666667 221:0.44313725 222:1 223:1 224:1 225:0.066666667 226:0.61960784 227:0.44705882 228:0.8 229:0.066666667 230:0.066666667 231:0.066666667 232:0.066666667 233:0.066666667 234:0.066666667 235:0.066666667 236:0.066666667 237:0.41960784 238:1 239:1 240:1 241:0.44313725 242:0.61960784 243:1 244:1 245:1 246:0.1254902 247:0.24313725 248:0.24313725 249:0.61960784 250:1 251:0.26666667 252:0.066666667 253:0.44313725 254:1 255:1 256:1 257:1 258:0.57647059 259:1 260:1 261:1 262:1 263:1 264:1 265:1 266:1 267:1 268:0.38431373 269:0.8 270:1 271:1 272:1 273:1 274:1 275:1 276:1 277:1 278:1 279:1 280:1 281:0.5254902 282:1 283:1 284:1 285:1 286:1 287:1 288:1 289:1 290:1 291:1 292:1 293:1 294:1 295:1 296:1 297:0.16470588 298:0.37254902 299:1 300:0.37647059 301:1 302:1 303:1 304:1 305:1 306:1 307:1 308:1 309:1 310:1 311:1 312:1 313:1 314:1 315:1 316:1 317:1 318:1 319:1 320:1 321:1 322:1 323:1 324:1 325:0.81176471 326:1 327:1 328:1 329:1 330:1 331:1 332:1 333:1 334:1 335:1 336:1 
107.5366519880016 8.686806581824687 36.08745353072874 4.247960762384502 73.3099742693006 22.43905682710984 32.00922698148058 25.74350795462934 125.5742505598583 113.6149008306342 115.0753147279351 55.58574458142673 38.88382527304648 2.61447840901512 41.50926788727055 74.82816028018847 27.4015679413405 186.3344042439079 51.98418096707886 73.65252124219167 2.637730227366752 168.2427739689086 102.0421702717373 48.86005919536991 70.42791449329461 130.3201672998279 8.16966802362743 12.92296069489753 88.621490087499 23.0462950123765 103.8764579835401 30.93794138180123 36.59020700178985 1:1 2:0.61176471 3:1 4:1 5:1 6:1 7:1 8:1 9:1 10:1 11:1 12:1 13:1 14:1 15:1 16:1 17:1 18:1 19:1 20:1 21:1 22:1 23:1 24:0.35294118 25:1 26:1 27:0.61960784 28:1 29:1 30:1 31:1 32:1 33:1 34:1 35:1 36:1 37:1 38:1 39:0.27843137 40:0.41960784 41:0.47058824 42:1 43:1 44:1 45:1 46:1 47:1 48:1 49:1 50:1 51:1 52:1 53:1 54:1 55:1 56:1 57:1 58:1 59:1 60:1 61:1 62:1 63:1 64:1 65:1 66:1 67:1 68:0.6 69:1 70:1 71:1 72:0.81960784 73:0.8 74:1 75:1 76:1 77:1 78:1 79:1 80:1 81:0.81960784 82:0.61960784 83:0.21960784 84:1 85:1 86:0.24313725 87:0.26666667 88:0.066666667 89:0.066666667 90:0.24313725 91:0.44313725 92:0.61960784 93:0.66666667 94:1 95:1 96:1 97:0.066666667 98:0.066666667 99:0.066666667 100:0.24313725 101:0.44313725 102:0.066666667 103:0.066666667 104:0.066666667 105:0.066666667 106:0.066666667 107:0.066666667 108:0.066666667 109:0.44313725 110:1 111:0.37647059 112:1 113:0.44313725 114:0.066666667 115:0.066666667 116:0.066666667 117:0.26666667 118:0.8 119:0.44313725 120:0.8 121:0.75294118 122:0.61960784 123:0.26666667 124:0.066666667 125:0.066666667 126:0.8 127:0.7254902 128:1 129:1 130:1 131:0.066666667 132:0.066666667 133:0.066666667 134:0.81960784 135:1 136:1 137:0.56078431 138:1 139:0.44313725 140:0.066666667 141:0.066666667 142:0.61960784 143:1 144:1 145:1 146:1 147:0.26666667 148:0.066666667 149:0.066666667 150:0.24313725 151:0.26666667 152:0.44313725 153:0.61960784 154:0.066666667 155:0.44313725 156:0.066666667 157:0.066666667 158:0.8 159:0.5372549 160:0.81960784 161:1 162:1 163:0.24313725 164:0.066666667 165:0.066666667 166:0.066666667 167:0.066666667 168:0.066666667 169:0.066666667 170:0.066666667 171:0.066666667 172:0.066666667 173:0.066666667 174:1 175:1 176:0.81960784 177:1 178:1 179:0.066666667 180:0.066666667 181:0.066666667 182:0.24313725 183:0.81960784 184:0.81960784 185:0.81960784 186:0.61960784 187:0.066666667 188:0.066666667 189:0.44313725 190:1 191:1 192:0.81960784 193:1 194:1 195:0.066666667 196:0.066666667 197:0.066666667 198:0.61960784 199:0.44313725 200:1 201:1 202:0.44313725 203:0.066666667 204:0.066666667 205:0.043137255 206:0.30196078 207:1 208:0.61960784 209:1 210:0.81960784 211:0.066666667 212:0.066666667 213:0.066666667 214:0.24313725 215:0.22352941 216:1 217:0.81960784 218:0.24313725 219:0.066666667 220:0.066666667 221:1 222:1 223:1 224:0.44313725 225:1 226:0.81960784 227:0.066666667 228:0.066666667 229:0.066666667 230:0.066666667 231:0.066666667 232:0.24313725 233:0.066666667 234:0.066666667 235:0.066666667 236:0.44313725 237:1 238:1 239:1 240:0.61960784 241:1 242:0.44313725 243:0.066666667 244:0.066666667 245:0.44313725 246:0.24313725 247:0.44313725 248:0.44313725 249:0.18431373 250:0.066666667 251:0.066666667 252:0.61960784 253:1 254:0.39607843 255:1 256:1 257:0.22352941 258:0.61960784 259:0.066666667 260:0.26666667 261:0.61960784 262:1 263:1 264:1 265:0.8 266:0.26666667 267:0.066666667 268:0.61960784 269:1 270:0.30196078 271:1 272:1 273:1 274:1 275:1 276:1 277:1 278:1 279:1 280:1 281:1 282:1 283:1 284:0.81960784 285:1 286:1 287:1 288:1 289:1 290:1 291:1 292:1 293:1 294:1 295:1 296:1 297:1 298:1 299:1 300:1 301:1 302:1 303:1 304:1 305:1 306:1 307:1 308:1 309:0.52941176 310:1 311:1 312:1 313:1 314:1 315:1 316:1 317:1 318:1 319:1 320:1 321:1 322:1 323:1 324:1 325:1 326:1 327:1 328:1 329:1 330:1 331:1 332:1 333:1 334:1 335:1 336:1 
23.00973441889018 53.12746372738054 41.57727739726286 37.97362060487536 42.66036971572273 65.13492147094767 0 52.19215094917133 16.58010211085952 2.362031625589643 0 41.11140530497129 5.012486817547297 43.72613929290151 0 30.38219102024513 161.5280284274448 34.18574429267218 0 0 64.40908184244434 0 47.18395574506424 23.34004701968664 63.21211909236425 95.75957366383425 31.17258479826223 7.711083623245966 14.87672154666304 9.52537052070689 29.53187708675812 18.8118716736296 9.163057371896054 1:0.46666667 2:1 3:1 4:1 5:1 6:1 7:1 8:1 9:1 10:1 11:0.52941176 12:1 13:1 14:1 15:1 16:1 17:1 18:1 19:1 20:1 21:1 22:1 23:1 24:1 25:1 26:1 27:1 28:1 29:1 30:1 31:1 32:1 33:1 34:1 35:1 36:1 37:1 38:1 39:1 40:1 41:1 42:1 43:1 44:1 45:1 46:1 47:1 48:1 49:1 50:1 51:1 52:1 53:1 54:1 55:1 56:0.18431373 57:0.44313725 58:0.24313725 59:0.44313725 60:0.8 61:1 62:1 63:1 64:1 65:1 66:1 67:1 68:1 69:1 70:0.61960784 71:0.24313725 72:0.066666667 73:0.066666667 74:0.066666667 75:0.066666667 76:0.26666667 77:0.8 78:1 79:1 80:1 81:1 82:1 83:1 84:1 85:0.61960784 86:0.066666667 87:0.066666667 88:0.066666667 89:0.24313725 90:0.24313725 91:0.066666667 92:0.066666667 93:0.44313725 94:1 95:1 96:1 97:1 98:1 99:1 100:0.81960784 101:0.066666667 102:0.066666667 103:0.24313725 104:1 105:1 106:0.43137255 107:0.066666667 108:0.066666667 109:0.066666667 110:1 111:1 112:1 113:1 114:1 115:1 116:0.61960784 117:0.066666667 118:0.066666667 119:0.81960784 120:1 121:1 122:0.61960784 123:0.066666667 124:0.066666667 125:0.066666667 126:0.44313725 127:1 128:1 129:1 130:1 131:1 132:0.61960784 133:0.24313725 134:0.61960784 135:1 136:1 137:0.41960784 138:0.066666667 139:0.066666667 140:0.066666667 141:0.066666667 142:0.24313725 143:1 144:0.81960784 145:1 146:1 147:1 148:1 149:1 150:1 151:1 152:0.24313725 153:0.066666667 154:0.24313725 155:0.81960784 156:0.24313725 157:0.066666667 158:0.066666667 159:0.61960784 160:0.8 161:1 162:1 163:1 164:1 165:1 166:0.81960784 167:0.066666667 168:0.066666667 169:0.066666667 170:1 171:1 172:0.61960784 173:0.066666667 174:0.066666667 175:0.24313725 176:0.81960784 177:0.48235294 178:1 179:1 180:1 181:1 182:0.24313725 183:0.066666667 184:0.24313725 185:0.21960784 186:1 187:1 188:0.61960784 189:0.066666667 190:0.066666667 191:0.066666667 192:0.066666667 193:1 194:1 195:0.65882353 196:1 197:1 198:0.26666667 199:0.066666667 200:0.24313725 201:0.8 202:1 203:0.81960784 204:0.26666667 205:0.066666667 206:0.24313725 207:0.066666667 208:0.44313725 209:1 210:1 211:1 212:1 213:0.7372549 214:0.26666667 215:0.066666667 216:0.066666667 217:0.26666667 218:0.24313725 219:0.066666667 220:0.066666667 221:0.81960784 222:0.61960784 223:1 224:1 225:0.8 226:1 227:1 228:1 229:1 230:0.81960784 231:0.066666667 232:0.066666667 233:0.066666667 234:0.066666667 235:0.066666667 236:0.44313725 237:1 238:1 239:1 240:1 241:1 242:0.64705882 243:1 244:1 245:1 246:0.24313725 247:1 248:0.44313725 249:0.44313725 250:0.44313725 251:0.81960784 252:0.5372549 253:1 254:1 255:1 256:0.43529412 257:1 258:1 259:1 260:1 261:1 262:1 263:1 264:0.30196078 265:1 266:1 267:1 268:1 269:1 270:1 271:1 272:1 273:1 274:1 275:1 276:1 277:1 278:1 279:1 280:1 281:0.43137255 282:1 283:1 284:1 285:1 286:1 287:1 288:1 289:1 290:1 291:0.69411765 292:1 293:1 294:1 295:1 296:1 297:0.34901961 298:1 299:1 300:1 301:0.28235294 302:1 303:1 304:1 305:1 306:1 307:1 308:1 309:1 310:1 311:1 312:1 313:1 314:1 315:1 316:1 317:1 318:1 319:1 320:1 321:1 322:1 323:0.70588235 324:1 325:1 326:1 327:1 328:1 329:1 330:1 331:1 332:1 333:1 334:1 335:1 336:1 
10.45533036201316 0 43.3580353217529 28.48816831881237 0 0 0 10.9874342408471 0 44.16875430667559 64.78755995610649 38.79777943972164 4.427347511507363 25.08389462071558 17.43479822025907 17.75268290891469 3.086554258165164 8.733035220815323 28.28952407923321 0 0 12.24892676074886 9.240610532079225 0 20.01699418779911 35.70393957540025 2.341635224074719 6.765102399671778 59.79800266485403 21.14905981852643 93.56438191647021 22.11826690319509 0 1:1 2:1 3:1 4:1 5:1 6:1 7:1 8:1 9:1 10:1 11:1 12:1 13:1 14:1 15:1 16:1 17:1 18:1 19:1 20:0.34901961 21:1 22:1 23:1 24:1 25:1 26:1 27:1 28:1 29:1 30:1 31:1 32:1 33:1 34:1 35:1 36:1 37:1 38:1 39:1 40:1 41:0.17647059 42:1 43:1 44:1 45:1 46:1 47:1 48:1 49:1 50:1 51:1 52:0.57254902 53:1 54:1 55:0.83137255 56:1 57:1 58:1 59:1 60:1 61:1 62:1 63:1 64:1 65:1 66:1 67:1 68:1 69:1 70:1 71:1 72:1 73:1 74:1 75:1 76:1 77:1 78:1 79:1 80:1 81:0.81960784 82:0.8 83:1 84:0.29019608 85:1 86:1 87:0.44313725 88:0.066666667 89:0.26666667 90:0.24313725 91:0.26666667 92:0.44313725 93:1 94:1 95:1 96:0.47058824 97:0.066666667 98:0.066666667 99:0.066666667 100:1 101:1 102:0.26666667 103:0.066666667 104:0.066666667 105:0.066666667 106:0.066666667 107:0.066666667 108:0.066666667 109:0.066666667 110:0.81960784 111:1 112:1 113:0.066666667 114:0.066666667 115:0.61960784 116:1 117:1 118:0.44313725 119:0.26666667 120:0.24313725 121:0.81960784 122:0.8 123:0.44313725 124:0.066666667 125:0.066666667 126:0.24313725 127:0.74117647 128:1 129:0.066666667 130:0.26666667 131:1 132:1 133:1 134:1 135:1 136:1 137:0.81176471 138:1 139:1 140:0.26666667 141:0.066666667 142:0.24313725 143:1 144:0.81960784 145:0.066666667 146:0.41960784 147:1 148:1 149:1 150:0.81960784 151:0.81960784 152:0.44313725 153:0.61960784 154:0.61960784 155:0.61960784 156:0.066666667 157:0.066666667 158:0.24313725 159:0.68235294 160:0.8 161:0.41960784 162:1 163:1 164:1 165:0.41960784 166:0.066666667 167:0.066666667 168:0.066666667 169:0.066666667 170:0.066666667 171:0.066666667 172:0.066666667 173:0.066666667 174:0.26666667 175:1 176:0.81960784 177:1 178:1 179:1 180:0.4 181:0.066666667 182:0.066666667 183:0.26666667 184:0.61960784 185:0.24313725 186:0.44313725 187:0.44313725 188:0.066666667 189:0.066666667 190:0.44313725 191:1 192:0.1254902 193:1 194:1 195:1 196:0.44313725 197:0.066666667 198:0.066666667 199:0.61960784 200:1 201:1 202:1 203:0.44313725 204:0.066666667 205:0.066666667 206:0.81960784 207:1 208:1 209:1 210:1 211:1 212:0.24313725 213:0.066666667 214:0.066666667 215:0.61960784 216:1 217:1 218:0.81960784 219:0.26666667 220:0.066666667 221:0.26666667 222:0.81960784 223:1 224:1 225:1 226:1 227:1 228:0.81960784 229:0.066666667 230:0.066666667 231:0.066666667 232:0.066666667 233:0.066666667 234:0.24313725 235:0.066666667 236:0.066666667 237:0.066666667 238:1 239:1 240:1 241:0.7372549 242:1 243:1 244:1 245:0.81960784 246:0.24313725 247:0.066666667 248:0.066666667 249:0.26666667 250:0.24313725 251:0.26666667 252:0.066666667 253:0.44313725 254:1 255:1 256:1 257:1 258:1 259:1 260:1 261:1 262:1 263:0.8 264:0.81960784 265:0.41960784 266:1 267:0.24313725 268:0.24313725 269:0.24313725 270:1 271:1 272:1 273:1 274:1 275:1 276:1 277:1 278:1 279:1 280:0.71372549 281:1 282:1 283:1 284:1 285:0.81960784 286:1 287:0.7372549 288:1 289:1 290:1 291:1 292:1 293:1 294:1 295:0.14901961 296:1 297:1 298:0.21960784 299:1 300:1 301:1 302:1 303:1 304:1 305:1 306:1 307:1 308:1 309:1 310:1 311:1 312:1 313:1 314:1 315:1 316:1 317:0.76470588 318:1 319:1 320:1 321:1 322:0.22352941 323:1 324:1 325:1 326:1 327:1 328:1 329:1 330:1 331:1 332:1 333:1 334:1 335:1 336:1 
37.95923654065336 15.63538375346159 51.14483761292253 0 5.20909475970811 0 66.00564664302156 10.55929641033128 139.0842818334778 0 110.5847958727773 11.45122583999912 32.81625306518372 13.30766208701958 33.05463346926123 6.476434697961272 55.93727844559387 38.6772602214079 52.6997778919179 13.53548795746302 22.82283689618507 12.50381745016689 0 42.50266303070566 12.15679919177708 14.41526749154527 0 25.02941048916922 29.32181940841248 17.72109199505516 55.33391192613457 47.89319623468676 2.027288483677739 1:1 2:1 3:1 4:1 5:1 6:1 7:1 8:1 9:1 10:1 11:1 12:1 13:0.5254902 14:1 15:1 16:1 17:1 18:1 19:1 20:1 21:1 22:1 23:1 24:0.47843137 25:1 26:1 27:0.61960784 28:0.35294118 29:1 30:1 31:1 32:1 33:0.4 34:1 35:1 36:1 37:1 38:0.55294118 39:1 40:1 41:1 42:1 43:1 44:0.67843137 45:1 46:1 47:0.44313725 48:0.81960784 49:1 50:1 51:1 52:1 53:1 54:1 55:1 56:1 57:1 58:1 59:1 60:1 61:1 62:0.8 63:0.066666667 64:0.066666667 65:1 66:1 67:1 68:1 69:1 70:1 71:0.61960784 72:0.44313725 73:0.24313725 74:0.24313725 75:0.066666667 76:0.1254902 77:0.8 78:0.61960784 79:0.066666667 80:0.066666667 81:1 82:1 83:1 84:1 85:1 86:0.24313725 87:0.066666667 88:0.066666667 89:0.066666667 90:0.066666667 91:0.066666667 92:0.066666667 93:0.44313725 94:0.24313725 95:0.066666667 96:0.066666667 97:1 98:1 99:1 100:1 101:0.44313725 102:0.066666667 103:0.066666667 104:0.44313725 105:0.61960784 106:0.61960784 107:0.066666667 108:0.066666667 109:0.066666667 110:0.24313725 111:0.066666667 112:0.066666667 113:0.78823529 114:0.75294118 115:1 116:1 117:0.44313725 118:0.24313725 119:0.44313725 120:1 121:1 122:1 123:0.61960784 124:0.066666667 125:0.066666667 126:0.066666667 127:0.066666667 128:0.24313725 129:1 130:1 131:1 132:1 133:1 134:1 135:0.64705882 136:1 137:0.8 138:0.44313725 139:0.066666667 140:0.066666667 141:0.066666667 142:0.066666667 143:0.066666667 144:0.61960784 145:1 146:1 147:1 148:1 149:1 150:1 151:0.61960784 152:0.24313725 153:0.066666667 154:0.066666667 155:0.26666667 156:0.066666667 157:0.066666667 158:0.066666667 159:0.066666667 160:0.3372549 161:1 162:1 163:1 164:0.67058824 165:0.8 166:0.066666667 167:0.066666667 168:0.066666667 169:0.24313725 170:0.61960784 171:0.8 172:0.24313725 173:0.066666667 174:0.066666667 175:0.066666667 176:1 177:1 178:1 179:1 180:1 181:0.64313725 182:0.066666667 183:0.066666667 184:0.61960784 185:1 186:0.54901961 187:1 188:0.24313725 189:0.066666667 190:0.066666667 191:0.44313725 192:1 193:1 194:0.43137255 195:1 196:1 197:0.41960784 198:0.066666667 199:0.066666667 200:0.81960784 201:1 202:1 203:0.61960784 204:0.066666667 205:0.066666667 206:0.066666667 207:0.44313725 208:0.46666667 209:0.50196078 210:1 211:1 212:1 213:0.64313725 214:0.066666667 215:0.066666667 216:0.066666667 217:0.61960784 218:0.043137255 219:0.26666667 220:0.066666667 221:0.066666667 222:0.066666667 223:0.24313725 224:1 225:1 226:1 227:1 228:1 229:1 230:0.24313725 231:0.066666667 232:0.066666667 233:0.066666667 234:0.066666667 235:0.24313725 236:0.81960784 237:0.066666667 238:0.066666667 239:0.066666667 240:1 241:1 242:1 243:1 244:1 245:1 246:1 247:0.61960784 248:0.24313725 249:0.44313725 250:0.066666667 251:1 252:1 253:1 254:1 255:1 256:1 257:1 258:1 259:1 260:1 261:1 262:0.44705882 263:1 264:1 265:1 266:1 267:1 268:1 269:1 270:1 271:1 272:1 273:1 274:1 275:1 276:1 277:1 278:1 279:1 280:0.72941176 281:1 282:1 283:1 284:1 285:1 286:1 287:1 288:1 289:1 290:0.8 291:1 292:1 293:1 294:1 295:1 296:1 297:1 298:1 299:1 300:1 301:1 302:0.8 303:1 304:1 305:1 306:1 307:1 308:0.50196078 309:1 310:1 311:1 312:1 313:0.3372549 314:1 315:1 316:1 317:1 318:1 319:1 320:1 321:1 322:1 323:1 324:1 325:1 326:1 327:1 328:1 329:1 330:1 331:1 332:1 333:1 334:1 335:1 336:1 
0 0 11.09807065392418 26.18884673302327 0 5.065284936785009 17.13160068506898 0 0 5.213195630045005 0 0 0 26.28045770336639 21.29548810239798 33.08359746814848 0 0 41.42186842356242 0 8.289711369192368 16.91264374265444 16.92504074351045 27.16176462930486 0 0 34.21629822864881 13.00541071789394 1.156093445589648 37.6802679251743 0 30.79347533447562 0 1:1 2:1 3:1 4:1 5:1 6:1 7:0.43529412 8:1 9:1 10:1 11:1 12:1 13:1 14:1 15:1 16:1 17:1 18:1 19:1 20:1 21:1 22:1 23:1 24:0.57647059 25:1 26:1 27:1 28:1 29:1 30:1 31:0.6 32:1 33:1 34:1 35:1 36:1 37:1 38:1 39:0.49019608 40:1 41:1 42:1 43:1 44:1 45:1 46:1 47:1 48:1 49:1 50:1 51:1 52:1 53:1 54:1 55:1 56:1 57:1 58:1 59:1 60:1 61:0.68235294 62:1 63:1 64:1 65:1 66:1 67:1 68:1 69:1 70:1 71:1 72:1 73:1 74:0.3372549 75:1 76:1 77:1 78:1 79:0.082352941 80:1 81:1 82:1 83:1 84:1 85:1 86:0.81960784 87:0.44313725 88:0.24313725 89:0.26666667 90:0.24313725 91:0.26666667 92:0.44313725 93:1 94:1 95:1 96:1 97:0.066666667 98:0.44313725 99:0.61960784 100:1 101:0.8 102:0.24313725 103:0.066666667 104:0.066666667 105:0.066666667 106:0.066666667 107:0.066666667 108:0.066666667 109:0.066666667 110:1 111:1 112:1 113:0.066666667 114:0.066666667 115:0.61960784 116:1 117:0.44313725 118:0.066666667 119:0.066666667 120:0.61960784 121:0.3254902 122:0.8 123:0.44313725 124:0.066666667 125:0.066666667 126:0.61960784 127:1 128:1 129:0.066666667 130:0.24313725 131:0.81960784 132:1 133:1 134:0.41960784 135:0.61960784 136:1 137:1 138:1 139:0.61960784 140:0.066666667 141:0.066666667 142:0.61960784 143:1 144:1 145:0.066666667 146:0.26666667 147:1 148:1 149:1 150:1 151:1 152:0.8 153:0.61960784 154:0.44313725 155:0.26666667 156:0.066666667 157:0.066666667 158:0.61960784 159:1 160:1 161:0.066666667 162:0.61960784 163:1 164:1 165:1 166:0.44313725 167:0.066666667 168:0.066666667 169:0.066666667 170:0.066666667 171:0.066666667 172:0.066666667 173:0.066666667 174:0.61960784 175:1 176:1 177:0.26666667 178:1 179:1 180:1 181:0.44313725 182:0.066666667 183:0.066666667 184:0.44313725 185:0.81960784 186:0.81960784 187:0.61960784 188:0.066666667 189:0.066666667 190:0.44313725 191:1 192:1 193:0.41960784 194:1 195:1 196:0.81960784 197:0.066666667 198:0.066666667 199:0.24313725 200:1 201:1 202:1 203:0.44313725 204:0.066666667 205:0.066666667 206:0.61960784 207:1 208:1 209:1 210:1 211:1 212:0.8 213:0.066666667 214:0.066666667 215:0.26666667 216:1 217:1 218:1 219:0.26666667 220:0.066666667 221:0.066666667 222:0.8 223:1 224:1 225:1 226:1 227:1 228:0.43529412 229:0.24313725 230:0.066666667 231:0.066666667 232:0.24313725 233:0.24313725 234:0.24313725 235:0.066666667 236:0.066666667 237:0.066666667 238:0.61960784 239:1 240:1 241:1 242:1 243:1 244:1 245:0.81960784 246:0.24313725 247:0.066666667 248:0.066666667 249:0.066666667 250:0.24313725 251:0.81960784 252:0.24313725 253:0.066666667 254:0.24313725 255:1 256:1 257:1 258:1 259:1 260:1 261:1 262:1 263:0.8 264:0.81960784 265:0.8 266:1 267:1 268:0.81960784 269:0.8 270:0.81960784 271:1 272:1 273:1 274:1 275:1 276:1 277:1 278:1 279:1 280:1 281:1 282:1 283:1 284:1 285:1 286:1 287:1 288:1 289:1 290:1 291:1 292:1 293:1 294:1 295:1 296:1 297:1 298:0.4 299:1 300:1 301:1 302:1 303:1 304:1 305:1 306:1 307:1 308:1 309:1 310:1 311:1 312:1 313:1 314:1 315:1 316:1 317:1 318:1 319:0.71372549 320:1 321:1 322:1 323:0.20784314 324:1 325:1 326:1 327:1 328:0.16470588 329:1 330:1 331:0.71372549 332:0.40784314 333:1 334:1 335:1 336:1 
89.88378470016258 22.11160317856676 0 8.19507655925883 52.4147742105618 0 405.7376646386236 0 79.84730954397202 50.98894727060352 0 24.84187779123929 38.39537999268826 38.68576454053208 112.2047588362246 35.00249996724052 54.38812528767034 124.2318811914603 14.39477634349269 0 43.44287669562426 323.6046727118639 78.55800446946814 78.49399828947351 35.69458792168339 52.51597519986178 25.21961131613885 37.63304812500505 74.29215941232033 12.96987992156033 65.80534377969593 15.66468823223741 32.70403809539162 1:1 2:1 3:1 4:1 5:1 6:1 7:1 8:1 9:1 10:1 11:1 12:1 13:1 14:1 15:1 16:1 17:1 18:0.71372549 19:1 20:1 21:1 22:1 23:1 24:1 25:1 26:1 27:1 28:1 29:1 30:1 31:1 32:1 33:1 34:1 35:1 36:1 37:1 38:1 39:1 40:0.57254902 41:1 42:1 43:1 44:1 45:1 46:1 47:1 48:1 49:1 50:1 51:1 52:1 53:1 54:1 55:1 56:1 57:1 58:1 59:1 60:1 61:1 62:0.56078431 63:1 64:1 65:1 66:1 67:1 68:1 69:0.25490196 70:1 71:0.44313725 72:0.24313725 73:0.066666667 74:0.26666667 75:0.44313725 76:1 77:1 78:1 79:1 80:1 81:1 82:1 83:1 84:1 85:1 86:0.44313725 87:0.066666667 88:0.066666667 89:0.066666667 90:0.066666667 91:0.066666667 92:0.24313725 93:0.61960784 94:1 95:1 96:1 97:1 98:1 99:1 100:1 101:1 102:1 103:0.066666667 104:0.24313725 105:0.44313725 106:0.066666667 107:0.066666667 108:0.066666667 109:0.066666667 110:0.44313725 111:1 112:1 113:1 114:1 115:1 116:0.56078431 117:1 118:1 119:1 120:1 121:1 122:1 123:1 124:0.24313725 125:0.066666667 126:0.24313725 127:1 128:1 129:1 130:0.082352941 131:1 132:1 133:0.043137255 134:0.61960784 135:0.44313725 136:0.64313725 137:0.043137255 138:1 139:1 140:0.24313725 141:0.066666667 142:0.24313725 143:0.81960784 144:1 145:1 146:1 147:1 148:0.44313725 149:0.066666667 150:0.066666667 151:0.066666667 152:0.066666667 153:0.066666667 154:0.24313725 155:0.26666667 156:0.066666667 157:0.066666667 158:0.24313725 159:1 160:0.44313725 161:1 162:1 163:0.8 164:0.24313725 165:0.066666667 166:0.066666667 167:0.24313725 168:0.61960784 169:0.24313725 170:0.26666667 171:0.066666667 172:0.066666667 173:0.066666667 174:0.61960784 175:1 176:0.24313725 177:1 178:1 179:0.64313725 180:0.066666667 181:0.066666667 182:0.44313725 183:1 184:1 185:1 186:0.25882353 187:0.26666667 188:0.066666667 189:0.26666667 190:1 191:1 192:0.066666667 193:0.51372549 194:1 195:0.8 196:0.066666667 197:0.066666667 198:0.26666667 199:1 200:1 201:1 202:0.61960784 203:0.066666667 204:0.066666667 205:0.41960784 206:1 207:1 208:0.44313725 209:1 210:0.51764706 211:1 212:0.066666667 213:0.066666667 214:0.066666667 215:0.44313725 216:0.44313725 217:0.44313725 218:0.066666667 219:0.066666667 220:0.066666667 221:0.81960784 222:1 223:1 224:0.8 225:1 226:1 227:1 228:1 229:0.41960784 230:0.24313725 231:0.066666667 232:0.066666667 233:0.066666667 234:0.066666667 235:0.066666667 236:0.24313725 237:1 238:1 239:1 240:1 241:1 242:1 243:1 244:1 245:1 246:1 247:0.81960784 248:0.81960784 249:0.81960784 250:0.066666667 251:0.066666667 252:0.44313725 253:1 254:1 255:1 256:1 257:1 258:1 259:1 260:1 261:1 262:1 263:1 264:1 265:1 266:0.61960784 267:0.24313725 268:0.61960784 269:1 270:1 271:1 272:1 273:1 274:1 275:1 276:1 277:1 278:1 279:1 280:1 281:1 282:1 283:1 284:1 285:1 286:1 287:1 288:1 289:1 290:1 291:1 292:1 293:1 294:1 295:1 296:1 297:1 298:1 299:1 300:1 301:1 302:1 303:1 304:1 305:1 306:0.37647059 307:1 308:1 309:1 310:1 311:1 312:1 313:1 314:1 315:1 316:0.74117647 317:1 318:1 319:1 320:1 321:1 322:0.18431373 323:1 324:1 325:0.17647059 326:1 327:1 328:1 329:1 330:1 331:1 332:1 333:1 334:1 335:1 336:1 
0 0 0 14.10796654175388 30.46239809692804 39.23075492837031 104.8928048393102 23.81965628870255 0 0 6.660288218419593 0 8.068097013509524 2.6593974497028 0.9511264429458622 0 0 0 0 6.787720632532785 0 79.67056284451017 39.2244309975822 11.0179049007614 40.80241387139855 0 3.612813519125678 0 0 0 0 0 0 1:1 2:1 3:1 4:1 5:1 6:0.51372549 7:1 8:1 9:1 10:1 11:1 12:1 13:1 14:1 15:1 16:1 17:1 18:1 19:1 20:1 21:1 22:1 23:1 24:1 25:1 26:1 27:1 28:1 29:1 30:1 31:1 32:1 33:0.066666667 34:0.81960784 35:1 36:1 37:1 38:1 39:1 40:1 41:1 42:1 43:1 44:1 45:1 46:1 47:1 48:1 49:0.066666667 50:0.24313725 51:1 52:1 53:1 54:1 55:1 56:1 57:1 58:1 59:1 60:1 61:1 62:1 63:1 64:1 65:0.066666667 66:0.24313725 67:1 68:1 69:1 70:1 71:0.18431373 72:0.26666667 73:0.043137255 74:0.61960784 75:0.61960784 76:1 77:1 78:0.23529412 79:1 80:1 81:0.066666667 82:0.066666667 83:0.81960784 84:0.71372549 85:0.24313725 86:0.24313725 87:0.066666667 88:0.066666667 89:0.066666667 90:0.066666667 91:0.066666667 92:0.066666667 93:0.81960784 94:1 95:1 96:1 97:0.066666667 98:0.066666667 99:0.8 100:1 101:0.066666667 102:0.066666667 103:0.066666667 104:0.44313725 105:0.44313725 106:0.26666667 107:0.066666667 108:0.066666667 109:0.24313725 110:1 111:0.35294118 112:1 113:0.066666667 114:0.066666667 115:0.81960784 116:1 117:0.81960784 118:0.44313725 119:0.81960784 120:1 121:1 122:1 123:0.26666667 124:0.066666667 125:0.26666667 126:1 127:1 128:1 129:0.066666667 130:0.24313725 131:1 132:1 133:0.28235294 134:1 135:1 136:0.69019608 137:0.8 138:0.81960784 139:0.066666667 140:0.066666667 141:0.066666667 142:1 143:1 144:1 145:0.066666667 146:0.24313725 147:1 148:1 149:0.81960784 150:0.44313725 151:0.26666667 152:0.066666667 153:0.26666667 154:0.066666667 155:0.066666667 156:0.066666667 157:0.26666667 158:1 159:1 160:1 161:0.066666667 162:0.066666667 163:1 164:0.043137255 165:0.066666667 166:0.066666667 167:0.066666667 168:0.24313725 169:0.24313725 170:0.24313725 171:0.066666667 172:0.066666667 173:0.24313725 174:1 175:0.42352941 176:1 177:0.066666667 178:0.44313725 179:1 180:0.24313725 181:0.066666667 182:0.24313725 183:0.81960784 184:0.58431373 185:1 186:0.18431373 187:0.066666667 188:0.066666667 189:0.26666667 190:1 191:1 192:1 193:0.066666667 194:0.81960784 195:1 196:0.24313725 197:0.066666667 198:0.24313725 199:1 200:1 201:1 202:0.61960784 203:0.066666667 204:0.066666667 205:0.41960784 206:1 207:1 208:1 209:0.44313725 210:1 211:1 212:0.24313725 213:0.066666667 214:0.066666667 215:0.44313725 216:0.8 217:0.61960784 218:0.066666667 219:0.066666667 220:0.066666667 221:0.61960784 222:1 223:1 224:0.17647059 225:0.8 226:1 227:1 228:0.81960784 229:0.066666667 230:0.066666667 231:0.066666667 232:0.066666667 233:0.066666667 234:0.26666667 235:0.066666667 236:0.066666667 237:0.44313725 238:1 239:1 240:1 241:1 242:1 243:1 244:1 245:1 246:0.61960784 247:0.44313725 248:0.44313725 249:0.81960784 250:1 251:0.44313725 252:0.24313725 253:0.44313725 254:0.36078431 255:1 256:1 257:1 258:1 259:1 260:1 261:1 262:1 263:1 264:1 265:1 266:1 267:1 268:1 269:1 270:1 271:1 272:1 273:1 274:1 275:1 276:1 277:1 278:1 279:1 280:1 281:1 282:1 283:1 284:1 285:1 286:1 287:1 288:1 289:1 290:1 291:1 292:0.65490196 293:1 294:0.83137255 295:1 296:1 297:1 298:1 299:0.45882353 300:1 301:1 302:1 303:1 304:1 305:1 306:1 307:1 308:1 309:1 310:1 311:1 312:0.45882353 313:1 314:1 315:1 316:1 317:1 318:1 319:1 320:1 321:1 322:0.42352941 323:1 324:0.37647059 325:1 326:1 327:1 328:1 329:1 330:1 331:1 332:1 333:1 334:1 335:1 336:1 
0 0 0 0 0 0 71.15485993306841 0 0 0 0 0 0 0 0 0 0 0 0 0 0 45.10254126902888 31.11367898289955 0 2.629720866534866 0 0 0 0 0 0 0 0 1:1 2:1 3:1 4:1 5:1 6:1 7:1 8:1 9:1 10:1 11:1 12:1 13:1 14:1 15:1 16:1 17:1 18:1 19:1 20:0.52941176 21:1 22:1 23:1 24:1 25:1 26:1 27:0.64705882 28:1 29:1 30:1 31:1 32:1 33:1 34:0.79607843 35:1 36:1 37:1 38:0.47843137 39:1 40:1 41:1 42:1 43:1 44:1 45:1 46:1 47:1 48:1 49:1 50:1 51:1 52:1 53:1 54:1 55:1 56:1 57:0.47843137 58:1 59:1 60:1 61:1 62:1 63:1 64:1 65:1 66:1 67:1 68:1 69:1 70:1 71:0.8 72:0.61960784 73:0.44313725 74:0.61960784 75:0.61960784 76:1 77:1 78:1 79:1 80:1 81:1 82:1 83:0.4 84:1 85:1 86:0.26666667 87:0.26666667 88:0.066666667 89:0.066666667 90:0.066666667 91:0.066666667 92:0.24313725 93:1 94:1 95:1 96:1 97:1 98:1 99:1 100:1 101:0.066666667 102:0.066666667 103:0.066666667 104:0.24313725 105:0.24313725 106:0.24313725 107:0.066666667 108:0.066666667 109:0.44313725 110:1 111:1 112:1 113:0.50196078 114:1 115:1 116:0.16078431 117:0.066666667 118:0.066666667 119:0.30196078 120:1 121:1 122:0.8 123:0.066666667 124:0.066666667 125:0.44313725 126:1 127:1 128:1 129:1 130:1 131:1 132:0.44313725 133:0.24313725 134:0.44313725 135:1 136:1 137:1 138:0.24313725 139:0.066666667 140:0.066666667 141:0.066666667 142:1 143:1 144:1 145:1 146:1 147:1 148:1 149:1 150:1 151:1 152:0.44313725 153:0.066666667 154:0.066666667 155:0.066666667 156:0.066666667 157:0.066666667 158:0.8 159:1 160:0.34117647 161:1 162:1 163:1 164:1 165:1 166:0.61960784 167:0.066666667 168:0.066666667 169:0.066666667 170:0.44313725 171:0.24313725 172:0.066666667 173:0.066666667 174:0.61960784 175:1 176:1 177:1 178:1 179:1 180:1 181:0.10196078 182:0.066666667 183:0.066666667 184:0.44313725 185:1 186:1 187:0.81960784 188:0.066666667 189:0.066666667 190:0.44313725 191:1 192:1 193:1 194:1 195:1 196:1 197:0.066666667 198:0.066666667 199:0.066666667 200:0.4 201:1 202:1 203:0.61960784 204:0.066666667 205:0.066666667 206:0.24313725 207:1 208:1 209:1 210:0.4 211:1 212:1 213:0.26666667 214:0.066666667 215:0.26666667 216:0.8 217:1 218:0.81960784 219:0.26666667 220:0.066666667 221:0.066666667 222:0.066666667 223:0.81960784 224:1 225:1 226:1 227:1 228:1 229:0.24313725 230:0.066666667 231:0.066666667 232:0.24313725 233:0.24313725 234:0.24313725 235:0.066666667 236:0.44313725 237:0.066666667 238:0.24313725 239:0.24313725 240:0.51372549 241:1 242:1 243:1 244:1 245:1 246:0.24313725 247:0.066666667 248:0.066666667 249:0.066666667 250:0.24313725 251:0.81960784 252:1 253:1 254:1 255:1 256:1 257:1 258:1 259:1 260:1 261:1 262:1 263:0.61960784 264:0.61960784 265:0.8 266:0.60784314 267:1 268:1 269:1 270:1 271:1 272:1 273:1 274:1 275:1 276:1 277:1 278:1 279:1 280:1 281:1 282:1 283:1 284:1 285:1 286:1 287:1 288:1 289:1 290:1 291:1 292:1 293:1 294:1 295:1 296:1 297:1 298:1 299:0.58823529 300:1 301:1 302:1 303:1 304:1 305:1 306:1 307:1 308:1 309:1 310:1 311:1 312:1 313:1 314:1 315:1 316:1 317:1 318:0.54901961 319:1 320:1 321:1 322:1 323:1 324:1 325:1 326:1 327:0.49019608 328:1 329:1 330:0.41960784 331:1 332:1 333:1 334:1 335:1 336:1 
0 0 0 0 0 0 51.60989908752722 0 0 0 0 0 0 0 9.565049158248828 0 0 0 0 0 0 103.3052439159552 0 0 0 0 0 0 0 0 0 0 0 1:1 2:1 3:1 4:1 5:1 6:1 7:1 8:1 9:1 10:1 11:1 12:1 13:1 14:1 15:1 16:1 17:0.63529412 18:1 19:1 20:1 21:1 22:1 23:1 24:1 25:1 26:1 27:1 28:1 29:1 30:1 31:1 32:1 33:1 34:1 35:1 36:1 37:1 38:1 39:1 40:1 41:1 42:1 43:1 44:1 45:1 46:1 47:1 48:1 49:1 50:1 51:1 52:1 53:1 54:1 55:1 56:1 57:1 58:1 59:1 60:0.69803922 61:1 62:0.58431373 63:1 64:1 65:1 66:1 67:1 68:0.85882353 69:1 70:1 71:1 72:0.81960784 73:0.8 74:0.81960784 75:0.81960784 76:1 77:1 78:1 79:1 80:1 81:1 82:0.27843137 83:1 84:1 85:1 86:0.61960784 87:0.26666667 88:0.066666667 89:0.066666667 90:0.066666667 91:0.26666667 92:0.24313725 93:1 94:1 95:1 96:1 97:1 98:1 99:1 100:1 101:0.44313725 102:0.066666667 103:0.066666667 104:0.24313725 105:0.066666667 106:0.24313725 107:0.066666667 108:0.066666667 109:0.24313725 110:1 111:1 112:0.35294118 113:1 114:1 115:1 116:1 117:0.26666667 118:0.066666667 119:0.26666667 120:0.81960784 121:1 122:1 123:0.26666667 124:0.066666667 125:0.066666667 126:0.81960784 127:1 128:1 129:1 130:1 131:1 132:1 133:1 134:0.81960784 135:0.8 136:1 137:1 138:1 139:0.41960784 140:0.066666667 141:0.066666667 142:0.81960784 143:1 144:1 145:0.76078431 146:1 147:1 148:1 149:1 150:1 151:0.45882353 152:0.44313725 153:0.44313725 154:0.24313725 155:0.066666667 156:0.066666667 157:0.066666667 158:0.50196078 159:1 160:1 161:1 162:1 163:1 164:1 165:0.8 166:0.066666667 167:0.066666667 168:0.066666667 169:0.066666667 170:0.24313725 171:0.066666667 172:0.066666667 173:0.066666667 174:0.81960784 175:1 176:0.38431373 177:1 178:1 179:1 180:1 181:0.066666667 182:0.066666667 183:0.26666667 184:0.61960784 185:0.65490196 186:1 187:0.64313725 188:0.066666667 189:0.066666667 190:0.8 191:1 192:1 193:1 194:1 195:1 196:0.81960784 197:0.066666667 198:0.066666667 199:0.44313725 200:1 201:1 202:1 203:0.44313725 204:0.066666667 205:0.066666667 206:0.81960784 207:1 208:1 209:1 210:0.16078431 211:1 212:0.8 213:0.066666667 214:0.066666667 215:0.18431373 216:1 217:1 218:0.61960784 219:0.24313725 220:0.066666667 221:0.066666667 222:0.81960784 223:1 224:1 225:0.8 226:1 227:1 228:1 229:0.24313725 230:0.066666667 231:0.066666667 232:0.24313725 233:0.066666667 234:0.066666667 235:0.066666667 236:0.066666667 237:0.066666667 238:0.61960784 239:1 240:0.78823529 241:0.81960784 242:1 243:1 244:1 245:0.81960784 246:0.24313725 247:0.26666667 248:0.066666667 249:0.26666667 250:0.44313725 251:1 252:0.44313725 253:0.44313725 254:0.44313725 255:1 256:1 257:0.41960784 258:1 259:1 260:1 261:1 262:1 263:0.6 264:0.81960784 265:1 266:1 267:1 268:1 269:1 270:1 271:1 272:0.38431373 273:0.44313725 274:1 275:1 276:1 277:1 278:1 279:0.6 280:1 281:1 282:1 283:1 284:1 285:1 286:1 287:1 288:1 289:0.61960784 290:1 291:1 292:1 293:0.43529412 294:1 295:1 296:1 297:1 298:1 299:1 300:1 301:1 302:1 303:1 304:1 305:0.57254902 306:1 307:1 308:1 309:1 310:1 311:1 312:1 313:1 314:1 315:1 316:1 317:1 318:1 319:1 320:1 321:1 322:1 323:1 324:0.36078431 325:1 326:1 327:1 328:1 329:1 330:1 331:1 332:1 333:1 334:1 335:1 336:0.3254902 
17.71392829618319 0 0 0 0 0 9.239184144811542 0 149.0366163998781 65.1768919876144 0.9567016142990552 13.38874968208154 0 0 18.22127762191679 53.25637026920509 0 37.78330379407586 11.04026150082379 0 0 31.0154083733546 0 0 0 50.65507409207049 0 0 32.59254458790245 0 48.83369204614694 26.57560747515035 33.77449401924832 1:1 2:1 3:1 4:1 5:1 6:1 7:1 8:1 9:1 10:1 11:0.38431373 12:1 13:0.61960784 14:1 15:1 16:1 17:1 18:1 19:1 20:1 21:1 22:1 23:1 24:1 25:1 26:1 27:1 28:1 29:1 30:1 31:1 32:1 33:1 34:1 35:1 36:1 37:1 38:1 39:0.24705882 40:1 41:1 42:1 43:1 44:1 45:0.58823529 46:1 47:0.61960784 48:0.44313725 49:1 50:0.35294118 51:1 52:1 53:1 54:1 55:0.74901961 56:0.25882353 57:1 58:1 59:1 60:1 61:1 62:1 63:0.44313725 64:0.066666667 65:1 66:1 67:1 68:1 69:1 70:1 71:0.8 72:0.81960784 73:0.8 74:0.81960784 75:1 76:1 77:1 78:1 79:0.066666667 80:0.066666667 81:1 82:1 83:1 84:1 85:1 86:0.61960784 87:0.26666667 88:0.066666667 89:0.066666667 90:0.066666667 91:0.26666667 92:0.24313725 93:0.44313725 94:0.44313725 95:0.066666667 96:0.066666667 97:1 98:1 99:1 100:1 101:0.61960784 102:0.066666667 103:0.066666667 104:0.24313725 105:0.066666667 106:0.24313725 107:0.066666667 108:0.066666667 109:0.066666667 110:0.24313725 111:0.066666667 112:0.066666667 113:1 114:1 115:1 116:1 117:1 118:0.44313725 119:0.44313725 120:0.81960784 121:1 122:1 123:0.44313725 124:0.066666667 125:0.066666667 126:0.066666667 127:0.066666667 128:0.24313725 129:1 130:1 131:1 132:1 133:1 134:1 135:1 136:1 137:1 138:1 139:0.8 140:0.066666667 141:0.066666667 142:0.066666667 143:0.066666667 144:0.81960784 145:1 146:1 147:1 148:1 149:0.49411765 150:0.61960784 151:0.61960784 152:0.24313725 153:0.44313725 154:0.24313725 155:0.26666667 156:0.066666667 157:0.066666667 158:0.066666667 159:0.26666667 160:1 161:1 162:1 163:1 164:1 165:0.24313725 166:0.066666667 167:0.066666667 168:0.066666667 169:0.066666667 170:0.24313725 171:0.066666667 172:0.066666667 173:0.066666667 174:0.066666667 175:0.61960784 176:1 177:1 178:1 179:1 180:0.44313725 181:0.066666667 182:0.066666667 183:0.44313725 184:0.81960784 185:1 186:1 187:0.26666667 188:0.066666667 189:0.066666667 190:0.066666667 191:1 192:1 193:0.3372549 194:0.56078431 195:1 196:0.26666667 197:0.066666667 198:0.066666667 199:0.8 200:1 201:1 202:1 203:0.066666667 204:0.066666667 205:0.066666667 206:0.61960784 207:1 208:1 209:1 210:1 211:1 212:0.066666667 213:0.066666667 214:0.066666667 215:0.61960784 216:1 217:1 218:0.44313725 219:0.066666667 220:0.066666667 221:0.26666667 222:0.81960784 223:1 224:1 225:1 226:1 227:1 228:0.81960784 229:0.066666667 230:0.066666667 231:0.066666667 232:0.24313725 233:0.066666667 234:0.066666667 235:0.066666667 236:0.066666667 237:0.24313725 238:1 239:1 240:1 241:1 242:0.21960784 243:1 244:1 245:0.81960784 246:0.24313725 247:0.26666667 248:0.24313725 249:0.44313725 250:0.61960784 251:0.26666667 252:0.066666667 253:0.44313725 254:1 255:1 256:1 257:1 258:1 259:1 260:1 261:1 262:1 263:1 264:1 265:1 266:1 267:0.61960784 268:0.61960784 269:0.41960784 270:1 271:1 272:1 273:1 274:1 275:1 276:1 277:1 278:1 279:1 280:1 281:1 282:1 283:1 284:1 285:1 286:0.18431373 287:1 288:1 289:1 290:1 291:1 292:1 293:1 294:1 295:1 296:1 297:1 298:1 299:0.39607843 300:1 301:1 302:1 303:1 304:0.37647059 305:1 306:1 307:1 308:1 309:1 310:1 311:1 312:1 313:0.81176471 314:1 315:1 316:1 317:1 318:1 319:1 320:1 321:1 322:1 323:1 324:1 325:1 326:1 327:1 328:1 329:1 330:1 331:1 332:1 333:1 334:1 335:1 336:1 
121.8862777445527 5.525226829186902 0 30.01315463013281 28.68340943819446 60.75993493529877 105.3653402528188 39.68694755078896 95.7256012581439 75.908871683496 20.44981449853307 43.50440322678485 37.25938209570539 48.38693351159608 75.34944664355808 32.36485963737609 63.29161478606682 120.525659582742 35.59116256987625 0 20.53087974549722 218.8878898768784 18.27700561539199 30.06344726555488 0 58.14901443164526 12.1438338258833 12.68569561591388 55.30389905909691 0 40.09292918863964 27.67488234249567 19.59428363264739 1:1 2:1 3:1 4:1 5:1 6:0.72941176 7:0.21960784 8:1 9:0.64705882 10:1 11:1 12:1 13:1 14:1 15:1 16:1 17:1 18:1 19:0.41960784 20:1 21:0.77647059 22:1 23:1 24:1 25:1 26:1 27:1 28:1 29:1 30:0.63137255 31:1 32:1 33:1 34:1 35:0.30196078 36:1 37:1 38:1 39:1 40:1 41:1 42:1 43:1 44:1 45:1 46:1 47:1 48:1 49:1 50:1 51:1 52:0.81176471 53:1 54:1 55:1 56:1 57:1 58:1 59:1 60:1 61:1 62:1 63:1 64:0.34117647 65:0.40784314 66:1 67:1 68:1 69:1 70:1 71:0.1254902 72:0.26666667 73:0.066666667 74:0.24313725 75:0.44313725 76:1 77:1 78:1 79:1 80:1 81:1 82:1 83:1 84:1 85:1 86:0.26666667 87:0.066666667 88:0.066666667 89:0.066666667 90:0.066666667 91:0.066666667 92:0.066666667 93:0.61960784 94:1 95:0.51372549 96:1 97:0.41960784 98:1 99:1 100:1 101:1 102:1 103:0.24313725 104:0.26666667 105:0.066666667 106:0.44313725 107:0.066666667 108:0.066666667 109:0.066666667 110:0.44313725 111:1 112:1 113:0.066666667 114:0.61960784 115:1 116:1 117:1 118:1 119:1 120:1 121:1 122:1 123:1 124:0.24313725 125:0.066666667 126:0.066666667 127:1 128:1 129:0.066666667 130:0.26666667 131:1 132:1 133:0.61960784 134:0.61960784 135:0.44313725 136:0.61960784 137:0.8 138:1 139:0.81960784 140:0.26666667 141:0.066666667 142:0.24313725 143:1 144:1 145:0.066666667 146:0.24313725 147:1 148:0.44313725 149:0.066666667 150:0.066666667 151:0.066666667 152:0.066666667 153:0.066666667 154:0.24313725 155:0.066666667 156:0.066666667 157:0.066666667 158:0.44313725 159:1 160:1 161:0.066666667 162:0.066666667 163:0.61960784 164:0.066666667 165:0.066666667 166:0.24313725 167:0.41960784 168:0.61960784 169:0.44313725 170:0.26666667 171:0.066666667 172:0.066666667 173:0.066666667 174:0.81960784 175:1 176:1 177:0.066666667 178:0.066666667 179:0.61960784 180:0.066666667 181:0.066666667 182:0.44313725 183:1 184:1 185:1 186:0.81960784 187:0.066666667 188:0.066666667 189:0.066666667 190:0.57647059 191:1 192:1 193:0.066666667 194:0.26666667 195:0.61960784 196:0.066666667 197:0.066666667 198:0.44313725 199:1 200:1 201:1 202:0.44313725 203:0.066666667 204:0.066666667 205:0.44313725 206:1 207:1 208:1 209:0.066666667 210:0.61960784 211:1 212:0.24313725 213:0.066666667 214:0.066666667 215:0.26666667 216:0.24313725 217:0.26666667 218:0.066666667 219:0.066666667 220:0.066666667 221:1 222:1 223:1 224:1 225:0.61960784 226:1 227:0.38431373 228:1 229:0.44313725 230:0.24313725 231:0.066666667 232:0.24313725 233:0.24313725 234:0.066666667 235:0.066666667 236:0.44313725 237:1 238:1 239:1 240:1 241:1 242:1 243:1 244:1 245:1 246:1 247:1 248:1 249:0.81960784 250:0.066666667 251:0.066666667 252:0.61960784 253:0.64705882 254:1 255:1 256:1 257:1 258:1 259:1 260:1 261:1 262:0.51372549 263:1 264:1 265:1 266:0.16078431 267:0.44313725 268:0.61960784 269:1 270:1 271:1 272:1 273:1 274:1 275:1 276:1 277:1 278:0.3254902 279:1 280:1 281:0.88235294 282:1 283:1 284:1 285:1 286:1 287:0.85490196 288:1 289:1 290:1 291:1 292:1 293:1 294:1 295:1 296:0.5254902 297:1 298:1 299:0.7372549 300:1 301:1 302:1 303:1 304:0.37647059 305:1 306:1 307:1 308:1 309:1 310:1 311:1 312:1 313:1 314:1 315:1 316:1 317:1 318:1 319:1 320:1 321:1 322:1 323:1 324:1 325:1 326:1 327:1 328:1 329:1 330:1 331:1 332:1 333:1 334:1 335:1 336:0.71372549 
0 0 0 0 0 0 0 0 0 30.55055870636546 0 0 0 13.59601539759844 22.50555896464667 0.2106655327925181 0 9.946975854260875 0 0 0 33.63224994642848 0 0 0 0 0 0 2.26781282962487 0 0 0 0 1:1 2:1 3:1 4:1 5:1 6:0.47058824 7:1 8:1 9:1 10:1 11:1 12:1 13:1 14:1 15:1 16:1 17:0.81960784 18:1 19:1 20:1 21:1 22:1 23:1 24:1 25:1 26:1 27:1 28:1 29:1 30:1 31:1 32:1 33:0.066666667 34:0.44313725 35:1 36:1 37:1 38:1 39:1 40:1 41:1 42:1 43:1 44:1 45:1 46:0.18431373 47:1 48:1 49:0.066666667 50:0.066666667 51:0.81960784 52:1 53:1 54:1 55:1 56:1 57:1 58:1 59:1 60:0.41176471 61:1 62:1 63:1 64:1 65:0.066666667 66:0.066666667 67:0.24313725 68:1 69:1 70:1 71:0.61960784 72:0.44313725 73:0.066666667 74:0.24313725 75:0.24313725 76:0.81960784 77:1 78:1 79:1 80:1 81:0.26666667 82:0.066666667 83:0.26666667 84:1 85:0.81960784 86:0.24313725 87:0.066666667 88:0.066666667 89:0.066666667 90:0.066666667 91:0.066666667 92:0.24313725 93:1 94:1 95:1 96:1 97:0.066666667 98:0.066666667 99:0.44313725 100:1 101:0.066666667 102:0.066666667 103:0.066666667 104:0.44313725 105:0.44313725 106:0.26666667 107:0.066666667 108:0.066666667 109:0.066666667 110:1 111:1 112:1 113:0.066666667 114:0.24313725 115:1 116:0.066666667 117:0.066666667 118:0.066666667 119:0.81960784 120:1 121:1 122:0.61960784 123:0.066666667 124:0.066666667 125:0.44313725 126:1 127:1 128:1 129:0.44313725 130:1 131:1 132:0.44313725 133:0.24313725 134:0.44313725 135:1 136:1 137:0.61960784 138:0.26666667 139:0.066666667 140:0.066666667 141:0.066666667 142:1 143:0.67058824 144:1 145:0.44313725 146:1 147:1 148:0.16078431 149:1 150:1 151:1 152:0.44313725 153:0.066666667 154:0.24313725 155:0.26666667 156:0.066666667 157:0.066666667 158:0.61960784 159:1 160:0.61960784 161:0.066666667 162:0.61960784 163:1 164:1 165:1 166:0.61960784 167:0.066666667 168:0.066666667 169:0.24313725 170:0.81960784 171:0.8 172:0.066666667 173:0.066666667 174:0.066666667 175:1 176:0.61960784 177:0.066666667 178:0.24313725 179:1 180:1 181:1 182:0.24313725 183:0.066666667 184:0.44313725 185:1 186:1 187:1 188:0.24313725 189:0.066666667 190:0.24313725 191:1 192:0.16078431 193:0.066666667 194:0.26666667 195:1 196:1 197:0.44313725 198:0.066666667 199:0.066666667 200:0.81960784 201:1 202:1 203:0.61960784 204:0.066666667 205:0.066666667 206:0.066666667 207:0.41960784 208:0.61960784 209:0.066666667 210:0.61960784 211:1 212:1 213:0.81960784 214:0.066666667 215:0.066666667 216:0.24313725 217:0.81960784 218:0.44313725 219:0.26666667 220:0.24313725 221:0.44313725 222:0.066666667 223:0.44313725 224:0.61960784 225:0.066666667 226:1 227:1 228:1 229:1 230:0.24313725 231:0.066666667 232:0.066666667 233:0.066666667 234:0.066666667 235:0.066666667 236:0.81960784 237:0.81960784 238:1 239:1 240:1 241:0.81960784 242:1 243:0.56470588 244:1 245:1 246:0.8 247:0.44313725 248:0.24313725 249:0.26666667 250:0.24313725 251:1 252:1 253:1 254:1 255:1 256:1 257:1 258:1 259:1 260:1 261:1 262:1 263:1 264:1 265:1 266:1 267:1 268:1 269:1 270:1 271:1 272:1 273:1 274:1 275:1 276:1 277:1 278:1 279:1 280:1 281:1 282:1 283:1 284:1 285:1 286:1 287:1 288:1 289:1 290:1 291:1 292:1 293:1 294:1 295:1 296:1 297:1 298:1 299:1 300:1 301:1 302:1 303:1 304:1 305:1 306:1 307:1 308:1 309:1 310:1 311:1 312:1 313:1 314:1 315:1 316:1 317:1 318:1 319:1 320:1 321:1 322:1 323:1 324:1 325:1 326:1 327:1 328:1 329:1 330:1 331:1 332:1 333:1 334:1 335:1 336:1 
0 5.573434392217752 0 1.647360955627854 6.940254153990305 0 38.68189666674598 0 0 0 0 0 0 0 0 0 0 0 0 0 3.484397067364322 0 17.39757423537538 0 4.999563027540399 0 12.61227478446531 0 0 9.902376446432381 0 0 0 1:1 2:1 3:1 4:1 5:1 6:1 7:0.74117647 8:1 9:1 10:1 11:1 12:1 13:1 14:1 15:1 16:1 17:1 18:1 19:1 20:1 21:1 22:1 23:1 24:0.28235294 25:1 26:1 27:1 28:1 29:1 30:1 31:1 32:0.37254902 33:1 34:1 35:1 36:1 37:1 38:1 39:1 40:1 41:1 42:1 43:1 44:1 45:1 46:1 47:1 48:1 49:1 50:1 51:1 52:1 53:1 54:1 55:0.70196078 56:1 57:1 58:1 59:1 60:1 61:1 62:0.91372549 63:1 64:1 65:1 66:1 67:1 68:1 69:0.68235294 70:1 71:0.44313725 72:0.26666667 73:0.24313725 74:0.61960784 75:0.61960784 76:1 77:1 78:1 79:1 80:1 81:0.81960784 82:0.7372549 83:1 84:1 85:0.81960784 86:0.24313725 87:0.066666667 88:0.066666667 89:0.066666667 90:0.066666667 91:0.066666667 92:0.066666667 93:0.44313725 94:0.3372549 95:1 96:1 97:0.066666667 98:0.24313725 99:0.8 100:1 101:0.066666667 102:0.066666667 103:0.066666667 104:0.44313725 105:0.44313725 106:0.26666667 107:0.066666667 108:0.066666667 109:0.24313725 110:1 111:0.24313725 112:1 113:0.066666667 114:0.24313725 115:1 116:1 117:0.81960784 118:0.44313725 119:0.81960784 120:1 121:1 122:1 123:0.26666667 124:0.066666667 125:0.26666667 126:1 127:1 128:1 129:0.41960784 130:1 131:0.21960784 132:1 133:1 134:1 135:1 136:1 137:0.8 138:0.81960784 139:0.066666667 140:0.066666667 141:0.066666667 142:1 143:1 144:0.69411765 145:1 146:1 147:1 148:1 149:0.81960784 150:0.44313725 151:0.26666667 152:0.066666667 153:0.26666667 154:0.066666667 155:0.066666667 156:0.066666667 157:0.26666667 158:1 159:1 160:1 161:1 162:1 163:1 164:0.61960784 165:0.066666667 166:0.066666667 167:0.066666667 168:0.24313725 169:0.24313725 170:0.61960784 171:0.066666667 172:0.066666667 173:0.24313725 174:1 175:1 176:1 177:1 178:1 179:1 180:0.066666667 181:0.066666667 182:0.24313725 183:0.81960784 184:1 185:1 186:0.81960784 187:0.26666667 188:0.066666667 189:0.26666667 190:1 191:1 192:1 193:1 194:1 195:1 196:0.066666667 197:0.066666667 198:0.24313725 199:1 200:1 201:1 202:0.61960784 203:0.066666667 204:0.066666667 205:0.41960784 206:1 207:0.58431373 208:1 209:1 210:1 211:1 212:0.24313725 213:0.066666667 214:0.066666667 215:0.44313725 216:0.8 217:0.61960784 218:0.24313725 219:0.066666667 220:0.066666667 221:0.61960784 222:1 223:1 224:1 225:1 226:1 227:1 228:0.81960784 229:0.066666667 230:0.066666667 231:0.066666667 232:0.066666667 233:0.066666667 234:0.26666667 235:0.066666667 236:0.066666667 237:0.44313725 238:1 239:1 240:1 241:1 242:1 243:0.49411765 244:1 245:1 246:0.066666667 247:0.44313725 248:0.44313725 249:0.81960784 250:1 251:0.44313725 252:0.24313725 253:0.44313725 254:1 255:1 256:1 257:1 258:1 259:1 260:1 261:1 262:0.64313725 263:1 264:1 265:1 266:1 267:1 268:1 269:1 270:1 271:1 272:1 273:1 274:1 275:1 276:1 277:1 278:1 279:1 280:1 281:1 282:1 283:1 284:1 285:1 286:1 287:1 288:1 289:1 290:1 291:1 292:1 293:1 294:1 295:1 296:1 297:1 298:1 299:1 300:1 301:1 302:1 303:1 304:1 305:1 306:1 307:1 308:1 309:1 310:1 311:1 312:1 313:1 314:1 315:1 316:1 317:1 318:1 319:1 320:1 321:1 322:1 323:1 324:0.21960784 325:1 326:1 327:1 328:1 329:1 330:1 331:1 332:1 333:1 334:1 335:1 336:1 
10.48761436720607 15.78523065268758 2.959909756281593 0 28.51083099901242 0 11.00980402073363 4.817598537774807 0 0 0 32.1463721181738 37.60504650841518 17.77436285056475 32.87164929831684 7.170405070864368 34.31646437012781 18.05064609200872 17.89735836260267 45.54197727231039 0 0 0 0 29.07161179373234 33.50193401951726 0 0 33.08785564735009 45.94301464277837 18.58514424330319 3.456116869513597 28.6598840479446 1:0.49019608 2:1 3:1 4:0.34117647 5:1 6:1 7:1 8:0.57647059 9:1 10:1 11:1 12:1 13:1 14:1 15:1 16:1 17:1 18:1 19:1 20:1 21:1 22:1 23:1 24:1 25:1 26:1 27:1 28:1 29:1 30:1 31:1 32:1 33:1 34:1 35:1 36:1 37:1 38:1 39:1 40:1 41:1 42:1 43:1 44:1 45:1 46:1 47:1 48:0.18431373 49:1 50:1 51:1 52:0.2 53:1 54:1 55:1 56:1 57:1 58:1 59:1 60:0.47058824 61:1 62:1 63:1 64:1 65:0.57647059 66:1 67:1 68:1 69:1 70:1 71:0.44313725 72:0.26666667 73:0.066666667 74:0.24313725 75:0.066666667 76:0.44313725 77:0.25490196 78:1 79:1 80:0.81176471 81:1 82:1 83:1 84:1 85:1 86:0.24313725 87:0.066666667 88:0.066666667 89:0.066666667 90:0.066666667 91:0.066666667 92:0.066666667 93:0.26666667 94:0.24313725 95:0.26666667 96:0.44313725 97:1 98:0.36470588 99:1 100:1 101:0.24313725 102:0.066666667 103:0.066666667 104:0.61960784 105:0.30196078 106:0.81960784 107:0.066666667 108:0.066666667 109:0.066666667 110:0.24313725 111:0.066666667 112:0.24313725 113:1 114:1 115:1 116:1 117:0.44313725 118:0.24313725 119:0.26666667 120:1 121:1 122:0.70196078 123:0.61960784 124:0.066666667 125:0.066666667 126:0.24313725 127:0.066666667 128:0.066666667 129:1 130:1 131:1 132:1 133:1 134:1 135:1 136:1 137:0.61960784 138:0.44313725 139:0.066666667 140:0.066666667 141:0.066666667 142:0.44313725 143:0.066666667 144:0.066666667 145:1 146:1 147:1 148:1 149:1 150:1 151:0.61960784 152:0.24313725 153:0.066666667 154:0.066666667 155:0.26666667 156:0.066666667 157:0.066666667 158:0.44313725 159:0.26666667 160:0.066666667 161:1 162:1 163:1 164:1 165:0.8 166:0.24313725 167:0.066666667 168:0.24313725 169:0.41960784 170:0.81960784 171:0.8 172:0.24313725 173:0.066666667 174:0.26666667 175:0.44313725 176:0.066666667 177:1 178:1 179:1 180:1 181:0.61960784 182:0.066666667 183:0.066666667 184:0.61960784 185:1 186:1 187:1 188:0.24313725 189:0.066666667 190:0.24313725 191:1 192:0.24313725 193:1 194:1 195:1 196:1 197:0.24313725 198:0.066666667 199:0.066666667 200:0.81960784 201:1 202:1 203:0.61960784 204:0.066666667 205:0.066666667 206:0.24313725 207:1 208:0.44313725 209:1 210:1 211:1 212:1 213:0.61960784 214:0.066666667 215:0.066666667 216:0.066666667 217:0.61960784 218:0.44313725 219:0.066666667 220:0.066666667 221:0.066666667 222:0.066666667 223:0.64313725 224:0.61960784 225:1 226:1 227:0.65882353 228:1 229:0.81960784 230:0.24313725 231:0.066666667 232:0.066666667 233:0.066666667 234:0.066666667 235:0.24313725 236:0.81960784 237:0.24313725 238:0.44313725 239:0.44313725 240:1 241:1 242:1 243:1 244:1 245:1 246:1 247:0.64313725 248:0.24313725 249:0.44313725 250:0.066666667 251:1 252:1 253:1 254:1 255:1 256:1 257:1 258:1 259:1 260:1 261:1 262:1 263:1 264:1 265:0.57647059 266:1 267:1 268:1 269:1 270:1 271:1 272:1 273:1 274:1 275:1 276:1 277:1 278:1 279:1 280:1 281:1 282:1 283:1 284:1 285:1 286:0.63137255 287:1 288:1 289:1 290:1 291:1 292:1 293:1 294:1 295:1 296:1 297:1 298:1 299:1 300:0.61176471 301:1 302:1 303:1 304:1 305:1 306:1 307:1 308:1 309:1 310:1 311:1 312:1 313:1 314:0.50196078 315:1 316:1 317:1 318:1 319:1 320:1 321:0.50196078 322:1 323:1 324:1 325:1 326:1 327:1 328:1 329:1 330:1 331:1 332:1 333:1 334:1 335:1 336:1 
0 0 0 0 0 0 0 0 0 0 0 0 0 0 0 0 0 0 0 0 0 0 0 0 0 62.14075141629408 0 0 19.20712828508994 0 0 0 11.56139137259351 1:1 2:0.78823529 3:1 4:0.71372549 5:1 6:1 7:1 8:1 9:1 10:1 11:1 12:1 13:1 14:1 15:1 16:1 17:1 18:1 19:1 20:1 21:1 22:1 23:1 24:1 25:1 26:1 27:1 28:1 29:1 30:1 31:1 32:1 33:1 34:1 35:1 36:1 37:1 38:1 39:1 40:1 41:1 42:1 43:1 44:1 45:1 46:1 47:1 48:1 49:0.81960784 50:1 51:1 52:0.22352941 53:1 54:1 55:1 56:1 57:1 58:1 59:1 60:1 61:1 62:1 63:1 64:1 65:0.24313725 66:1 67:1 68:1 69:1 70:1 71:0.043137255 72:0.26666667 73:0.066666667 74:0.24313725 75:0.24313725 76:0.61960784 77:0.8 78:1 79:1 80:1 81:0.26666667 82:0.81960784 83:1 84:1 85:1 86:0.44313725 87:0.066666667 88:0.066666667 89:0.066666667 90:0.066666667 91:0.066666667 92:0.066666667 93:0.26666667 94:0.61960784 95:1 96:1 97:0.066666667 98:0.44313725 99:0.4 100:1 101:1 102:0.61960784 103:0.24313725 104:0.24313725 105:0.61960784 106:0.81960784 107:0.24313725 108:0.066666667 109:0.066666667 110:0.24313725 111:1 112:1 113:0.066666667 114:0.24313725 115:1 116:1 117:1 118:1 119:1 120:0.81960784 121:1 122:1 123:1 124:0.24313725 125:0.066666667 126:0.066666667 127:0.81960784 128:1 129:0.066666667 130:0.066666667 131:0.1254902 132:1 133:1 134:1 135:0.8 136:0.81960784 137:0.8 138:0.81960784 139:0.8 140:0.26666667 141:0.066666667 142:0.24313725 143:0.81960784 144:1 145:0.066666667 146:0.066666667 147:0.44313725 148:1 149:0.61960784 150:0.24313725 151:0.066666667 152:0.066666667 153:0.066666667 154:0.066666667 155:0.066666667 156:0.066666667 157:0.066666667 158:0.24313725 159:1 160:1 161:0.066666667 162:0.066666667 163:0.066666667 164:0.8 165:0.066666667 166:0.066666667 167:0.066666667 168:0.44313725 169:0.44313725 170:0.61960784 171:0.24313725 172:0.066666667 173:0.066666667 174:0.44313725 175:1 176:1 177:0.066666667 178:0.066666667 179:0.066666667 180:0.24313725 181:0.066666667 182:0.066666667 183:0.81960784 184:1 185:1 186:1 187:0.61960784 188:0.066666667 189:0.066666667 190:0.61960784 191:1 192:1 193:0.24313725 194:0.066666667 195:0.066666667 196:0.24313725 197:0.066666667 198:0.066666667 199:0.44313725 200:1 201:1 202:1 203:0.24313725 204:0.066666667 205:0.066666667 206:0.81960784 207:1 208:1 209:1 210:0.24313725 211:0.066666667 212:0.066666667 213:0.066666667 214:0.066666667 215:0.066666667 216:0.44313725 217:0.61960784 218:0.24313725 219:0.066666667 220:0.066666667 221:0.26666667 222:1 223:1 224:1 225:1 226:0.44313725 227:0.066666667 228:0.066666667 229:0.043137255 230:0.066666667 231:0.066666667 232:0.066666667 233:0.066666667 234:0.24313725 235:0.066666667 236:0.066666667 237:0.24313725 238:1 239:1 240:1 241:1 242:0.44313725 243:0.066666667 244:0.066666667 245:0.81960784 246:1 247:0.81960784 248:0.61960784 249:0.81960784 250:1 251:0.24313725 252:0.066666667 253:0.44313725 254:1 255:1 256:1 257:0.44313725 258:0.066666667 259:0.066666667 260:0.26666667 261:1 262:1 263:1 264:1 265:1 266:1 267:0.55294118 268:0.81960784 269:0.61960784 270:1 271:1 272:1 273:0.066666667 274:0.066666667 275:0.26666667 276:0.8 277:1 278:1 279:1 280:1 281:1 282:1 283:1 284:1 285:1 286:1 287:1 288:0.28235294 289:0.066666667 290:0.61960784 291:1 292:1 293:1 294:1 295:1 296:1 297:1 298:1 299:1 300:1 301:1 302:1 303:1 304:1 305:1 306:1 307:1 308:1 309:1 310:1 311:1 312:1 313:1 314:1 315:1 316:1 317:1 318:1 319:1 320:1 321:1 322:1 323:1 324:1 325:1 326:1 327:1 328:1 329:0.14901961 330:1 331:0.14117647 332:1 333:1 334:1 335:1 336:1 
7.481603476353217 0 0 0 0 12.97130757142266 14.86011630219494 0 12.26002805343431 57.6634583348588 57.83202065452691 0 43.13723985582324 0 33.08112966876946 30.096034002346 0 70.36079074609808 22.51944966708875 8.848594240404022 0 49.85518704988753 34.89744850676065 0 14.36667333201184 46.28979243662832 0 8.5221863251769 0 0 32.80029098012487 22.99621929728649 0 1:0.18431373 2:1 3:1 4:1 5:1 6:1 7:1 8:1 9:1 10:1 11:1 12:1 13:1 14:1 15:1 16:1 17:1 18:1 19:1 20:1 21:1 22:1 23:1 24:1 25:1 26:1 27:1 28:1 29:1 30:1 31:1 32:1 33:1 34:0.45490196 35:1 36:0.70196078 37:1 38:1 39:1 40:1 41:1 42:1 43:1 44:1 45:1 46:1 47:1 48:1 49:1 50:1 51:1 52:1 53:1 54:0.27843137 55:1 56:1 57:0.81960784 58:0.8 59:1 60:1 61:0.64313725 62:1 63:1 64:1 65:0.41960784 66:1 67:1 68:1 69:0.11764706 70:1 71:0.44313725 72:0.26666667 73:0.066666667 74:0.066666667 75:0.066666667 76:0.81960784 77:1 78:1 79:1 80:1 81:0.44313725 82:0.81960784 83:1 84:1 85:0.81960784 86:0.24313725 87:0.066666667 88:0.066666667 89:0.066666667 90:0.066666667 91:0.066666667 92:0.066666667 93:1 94:0.89411765 95:1 96:1 97:1 98:1 99:1 100:1 101:0.066666667 102:0.066666667 103:0.066666667 104:0.61960784 105:0.8 106:0.26666667 107:0.066666667 108:0.066666667 109:0.44313725 110:1 111:1 112:1 113:1 114:1 115:1 116:0.61960784 117:0.066666667 118:0.066666667 119:0.81960784 120:1 121:1 122:0.61960784 123:0.066666667 124:0.066666667 125:0.26666667 126:1 127:1 128:1 129:1 130:1 131:1 132:0.61960784 133:0.066666667 134:0.26666667 135:0.81960784 136:0.25490196 137:0.44313725 138:0.066666667 139:0.066666667 140:0.066666667 141:0.066666667 142:0.61960784 143:1 144:0.8 145:0.64313725 146:0.066666667 147:0.26666667 148:0.8 149:0.70196078 150:1 151:1 152:0.24313725 153:0.066666667 154:0.24313725 155:0.61960784 156:0.066666667 157:0.066666667 158:0.24313725 159:1 160:1 161:0.24313725 162:0.066666667 163:0.066666667 164:0.81960784 165:1 166:1 167:0.24313725 168:0.066666667 169:0.24313725 170:1 171:1 172:0.26666667 173:0.066666667 174:0.066666667 175:0.61960784 176:1 177:0.066666667 178:0.066666667 179:0.26666667 180:1 181:1 182:0.066666667 183:0.066666667 184:0.24313725 185:1 186:1 187:1 188:0.24313725 189:0.066666667 190:0.066666667 191:0.26666667 192:0.81960784 193:0.066666667 194:0.066666667 195:0.41960784 196:0.55294118 197:1 198:0.24313725 199:0.066666667 200:0.26666667 201:1 202:1 203:0.8 204:0.24313725 205:0.066666667 206:0.066666667 207:0.066666667 208:0.44313725 209:0.066666667 210:0.24313725 211:1 212:1 213:1 214:0.24313725 215:0.066666667 216:0.066666667 217:0.26666667 218:0.24313725 219:0.26666667 220:0.066666667 221:1 222:0.24313725 223:1 224:0.44313725 225:0.44313725 226:1 227:1 228:1 229:1 230:0.81960784 231:0.066666667 232:0.066666667 233:0.066666667 234:0.066666667 235:0.066666667 236:0.21960784 237:0.59607843 238:1 239:1 240:1 241:1 242:1 243:1 244:1 245:1 246:1 247:0.14901961 248:0.44313725 249:0.066666667 250:0.44313725 251:1 252:1 253:1 254:1 255:1 256:1 257:1 258:1 259:1 260:1 261:1 262:1 263:1 264:1 265:1 266:1 267:1 268:0.79607843 269:1 270:1 271:1 272:1 273:1 274:1 275:1 276:1 277:1 278:1 279:1 280:1 281:0.8 282:1 283:1 284:1 285:1 286:1 287:1 288:1 289:1 290:1 291:0.3254902 292:0.20784314 293:1 294:1 295:1 296:1 297:1 298:1 299:1 300:1 301:1 302:1 303:1 304:1 305:1 306:1 307:0.87058824 308:1 309:1 310:1 311:1 312:1 313:1 314:1 315:1 316:1 317:1 318:1 319:1 320:1 321:1 322:0.89411765 323:1 324:1 325:1 326:1 327:1 328:1 329:1 330:1 331:1 332:1 333:1 334:1 335:1 336:1 
94.55955723845051 0 0 17.32750855730777 68.74029895987013 12.1208246077267 74.54178664297457 73.13082707191488 0 23.97695715066729 0 23.18872124649022 36.62380329800432 50.6045275972016 68.93335653795727 0 32.35664157335026 66.840443935523 0.6053038563184102 0 17.41439018606692 143.9820673773584 26.3294369110699 68.23650731285205 87.32001372264047 22.93206406285745 0 15.81652790366426 67.58519711004054 4.326414457467435 32.60570549607162 40.21501744430814 11.2465047406145 1:1 2:0.83137255 3:1 4:1 5:1 6:1 7:1 8:1 9:1 10:1 11:1 12:1 13:1 14:1 15:1 16:1 17:1 18:1 19:1 20:1 21:1 22:1 23:1 24:1 25:1 26:1 27:1 28:1 29:1 30:1 31:0.64313725 32:1 33:0.5372549 34:1 35:1 36:1 37:1 38:1 39:1 40:1 41:1 42:1 43:1 44:1 45:1 46:1 47:0.23137255 48:0.8 49:1 50:1 51:1 52:1 53:1 54:1 55:1 56:1 57:1 58:1 59:1 60:1 61:1 62:1 63:1 64:0.24313725 65:1 66:1 67:0.5254902 68:1 69:1 70:1 71:1 72:1 73:1 74:1 75:1 76:0.3372549 77:1 78:1 79:1 80:0.24313725 81:1 82:1 83:1 84:1 85:1 86:1 87:0.066666667 88:0.24313725 89:0.26666667 90:0.24313725 91:0.26666667 92:0.44313725 93:1 94:1 95:1 96:0.066666667 97:1 98:1 99:1 100:1 101:1 102:0.066666667 103:0.066666667 104:0.066666667 105:0.066666667 106:0.066666667 107:0.066666667 108:0.066666667 109:0.066666667 110:1 111:1 112:0.61960784 113:1 114:1 115:1 116:1 117:0.61960784 118:0.066666667 119:0.066666667 120:0.44313725 121:0.81960784 122:0.8 123:0.44313725 124:0.066666667 125:0.066666667 126:0.44313725 127:1 128:1 129:1 130:1 131:1 132:1 133:1 134:0.81960784 135:0.44313725 136:1 137:1 138:1 139:0.8 140:0.066666667 141:0.066666667 142:0.61960784 143:1 144:1 145:1 146:1 147:1 148:1 149:1 150:1 151:1 152:0.81960784 153:0.81960784 154:0.61960784 155:0.066666667 156:0.066666667 157:0.066666667 158:0.44313725 159:1 160:1 161:1 162:1 163:0.59607843 164:1 165:1 166:0.44313725 167:0.066666667 168:0.066666667 169:0.066666667 170:0.066666667 171:0.066666667 172:0.066666667 173:0.066666667 174:0.61960784 175:1 176:1 177:1 178:1 179:1 180:1 181:0.44313725 182:0.066666667 183:0.066666667 184:0.24313725 185:0.61960784 186:0.8 187:0.81960784 188:0.066666667 189:0.066666667 190:0.44313725 191:1 192:1 193:1 194:1 195:1 196:1 197:0.066666667 198:0.066666667 199:0.24313725 200:1 201:1 202:1 203:0.61960784 204:0.066666667 205:0.066666667 206:0.61960784 207:1 208:1 209:1 210:1 211:1 212:0.81960784 213:0.26666667 214:0.066666667 215:0.26666667 216:1 217:1 218:1 219:0.44313725 220:0.066666667 221:0.066666667 222:0.24313725 223:1 224:1 225:1 226:1 227:1 228:1 229:0.24313725 230:0.066666667 231:0.066666667 232:0.24313725 233:0.066666667 234:0.24313725 235:0.066666667 236:0.066666667 237:0.066666667 238:0.61960784 239:1 240:0.55294118 241:1 242:1 243:1 244:1 245:0.81960784 246:0.24313725 247:0.066666667 248:0.066666667 249:0.066666667 250:0.24313725 251:0.64313725 252:0.24313725 253:0.066666667 254:0.44313725 255:1 256:1 257:1 258:1 259:1 260:1 261:1 262:1 263:0.8 264:0.61960784 265:0.8 266:1 267:1 268:0.81960784 269:0.8 270:0.8 271:1 272:1 273:1 274:1 275:1 276:1 277:1 278:1 279:1 280:1 281:1 282:1 283:1 284:1 285:1 286:1 287:1 288:1 289:1 290:1 291:1 292:0.64313725 293:0.59607843 294:1 295:1 296:1 297:0.2 298:0.45490196 299:1 300:1 301:1 302:1 303:1 304:1 305:1 306:1 307:1 308:1 309:1 310:1 311:1 312:1 313:1 314:1 315:1 316:1 317:1 318:1 319:1 320:1 321:0.47843137 322:1 323:1 324:1 325:1 326:0.51372549 327:1 328:1 329:1 330:1 331:1 332:1 333:1 334:1 335:1 336:1 
0 18.98458153069939 0 5.465758390803339 0 0 125.4885072539569 0 0 0 0 0 0 0 0 0 0 0 0 0 18.6950531860892 0 39.60312899244027 0 39.74599344260655 0 0 13.61803614931754 0 0 0 0 0 1:1 2:1 3:1 4:1 5:1 6:1 7:0.85882353 8:1 9:1 10:1 11:1 12:1 13:1 14:1 15:1 16:0.81960784 17:1 18:1 19:1 20:1 21:1 22:1 23:1 24:1 25:1 26:1 27:1 28:0.27058824 29:1 30:1 31:0.81960784 32:0.066666667 33:1 34:1 35:0.71372549 36:1 37:1 38:1 39:1 40:1 41:1 42:1 43:1 44:1 45:1 46:1 47:0.8 48:0.24313725 49:1 50:1 51:1 52:1 53:1 54:1 55:0.5254902 56:1 57:1 58:1 59:1 60:1 61:1 62:1 63:0.34901961 64:0.24313725 65:1 66:1 67:1 68:1 69:1 70:1 71:0.8 72:0.61960784 73:0.44313725 74:0.61960784 75:0.21960784 76:1 77:1 78:1 79:1 80:0.24313725 81:1 82:0.83137255 83:1 84:0.37254902 85:1 86:0.24313725 87:0.066666667 88:0.066666667 89:0.066666667 90:0.066666667 91:0.066666667 92:0.24313725 93:1 94:1 95:0.8 96:0.24313725 97:1 98:1 99:1 100:1 101:0.24313725 102:0.066666667 103:0.066666667 104:0.24313725 105:0.24313725 106:0.24313725 107:0.066666667 108:0.066666667 109:0.24313725 110:1 111:1 112:0.44313725 113:1 114:1 115:0.3254902 116:0.81960784 117:0.26666667 118:0.066666667 119:0.44313725 120:1 121:1 122:1 123:0.26666667 124:0.066666667 125:0.26666667 126:1 127:1 128:0.61960784 129:1 130:1 131:1 132:1 133:1 134:0.81960784 135:1 136:1 137:0.25882353 138:0.81960784 139:0.066666667 140:0.066666667 141:0.066666667 142:1 143:1 144:0.61960784 145:1 146:1 147:1 148:1 149:1 150:1 151:0.64313725 152:0.24313725 153:0.26666667 154:0.066666667 155:0.066666667 156:0.066666667 157:0.26666667 158:1 159:1 160:0.8 161:1 162:1 163:1 164:1 165:0.61960784 166:0.24313725 167:0.066666667 168:0.066666667 169:0.066666667 170:0.44313725 171:0.066666667 172:0.066666667 173:0.066666667 174:1 175:1 176:0.81960784 177:1 178:1 179:1 180:0.81960784 181:0.26666667 182:0.066666667 183:0.44313725 184:0.8 185:1 186:1 187:0.26666667 188:0.066666667 189:0.26666667 190:1 191:1 192:1 193:1 194:1 195:1 196:0.61960784 197:0.066666667 198:0.066666667 199:0.1254902 200:1 201:1 202:1 203:0.24313725 204:0.066666667 205:0.066666667 206:0.30196078 207:1 208:1 209:1 210:1 211:1 212:0.8 213:0.066666667 214:0.066666667 215:0.26666667 216:0.81960784 217:1 218:0.44313725 219:0.066666667 220:0.066666667 221:0.066666667 222:0.81960784 223:1 224:1 225:1 226:1 227:1 228:1 229:0.24313725 230:0.066666667 231:0.066666667 232:0.24313725 233:0.066666667 234:0.066666667 235:0.24313725 236:0.066666667 237:0.066666667 238:0.44313725 239:1 240:1 241:1 242:1 243:1 244:1 245:1 246:0.24313725 247:0.26666667 248:0.24313725 249:0.44313725 250:0.61960784 251:1 252:0.61960784 253:0.61960784 254:0.44313725 255:1 256:1 257:0.61960784 258:1 259:1 260:0.69411765 261:1 262:1 263:1 264:0.88235294 265:1 266:1 267:1 268:1 269:1 270:1 271:1 272:1 273:1 274:1 275:1 276:1 277:0.78823529 278:1 279:1 280:1 281:1 282:1 283:1 284:1 285:1 286:1 287:1 288:1 289:1 290:1 291:1 292:1 293:1 294:0.64705882 295:1 296:1 297:1 298:1 299:0.59607843 300:1 301:1 302:1 303:1 304:1 305:1 306:1 307:1 308:1 309:1 310:1 311:1 312:1 313:1 314:1 315:1 316:1 317:1 318:1 319:1 320:1 321:1 322:1 323:1 324:1 325:1 326:1 327:1 328:1 329:1 330:1 331:1 332:1 333:1 334:1 335:0.64705882 336:1 
